MTP
version = 1.1.0
potential_name = MTP1m
scaling = 9.090909090909091e-01
species_count = 11
potential_tag =
radial_basis_type = RBChebyshev
	min_dist = 1.275190000000000e+00
	max_dist = 4.000000000000000e+00
	radial_basis_size = 8
	radial_funcs_count = 4
	radial_coeffs
		0-0
			{6.505443650403324e-02, 8.376548591834938e-02, 5.098165502087611e-02, -1.773240443091267e-02, 1.327259756225411e-02, -2.467375641436298e-02, 9.273885757886103e-04, -4.003074799860837e-03}
			{-3.758182406079806e-02, 2.152213547268390e-02, -5.423950135433843e-02, 1.245190616224793e-02, -2.861528534227830e-02, 3.398604480534062e-04, -5.960824327179543e-03, -1.802118286616777e-03}
			{-1.261452792803033e-02, 1.191205677672573e-02, -6.433874401493511e-03, -1.036140841218362e-02, 6.805329886317613e-03, -1.894390044552084e-02, 4.670865858426222e-03, -8.106376655806262e-03}
			{5.927573027755790e-03, 1.830700187280787e-02, 2.423577384144730e-02, 3.905020172439586e-02, 1.434138207124024e-02, 3.817114236589840e-02, 7.019273968902913e-05, 1.501311774730176e-02}
		0-1
			{5.439638695369278e-02, 1.038960015361479e-03, -1.674491084143378e-02, -2.297540318620136e-02, -4.349234866885429e-02, -3.806242452548451e-02, -3.356010187533787e-03, -1.315808598659738e-02}
			{1.713899895131182e-02, 8.207191770181153e-02, 3.380963432429588e-02, 1.959907205263072e-02, 3.226999888045963e-02, -5.733902338643927e-03, 1.362143582804712e-02, 2.671243169742623e-03}
			{-4.170091243703161e-02, -4.093548711713142e-02, -8.679859270467152e-03, 1.015580561476367e-02, 3.545654474238034e-02, 7.266864611783850e-03, 2.139397365173991e-02, 7.815372200882966e-03}
			{-9.003409444741425e-03, 8.222846419907870e-03, 1.591663169737871e-02, 3.104951773112243e-03, -6.239708024621123e-03, -1.620035030426253e-03, -2.120493740915570e-02, -1.520704681188038e-02}
		0-2
			{-3.127459681056356e-02, -1.003621143659069e-01, -1.034952512932936e-01, -8.805371793605439e-02, -9.705998495429645e-02, 3.018049882005000e-03, -4.275932913187165e-02, 1.082523816419368e-02}
			{6.375060577640390e-02, 8.898625819960667e-03, 1.510569049170395e-03, 6.847592836918866e-02, -1.142791481177226e-01, 7.698154485846218e-02, -5.246625502560577e-02, 2.131544252894533e-02}
			{-6.642529235732789e-02, -4.860084521059949e-02, -2.750362811771192e-02, -7.154768784042753e-03, 1.857058905999804e-02, -4.386057246240101e-02, 1.568852966381115e-02, -2.573984775490518e-02}
			{-8.895345690845494e-03, -4.483135171177223e-03, -1.730447412883030e-02, 5.839026053322962e-03, 2.836883197885107e-02, 1.922954552923558e-03, 1.197513683497918e-02, -7.693056238404546e-03}
		0-3
			{1.220769158153965e-01, 1.157108620577140e-01, 1.145808278086701e-01, 2.032942206376408e-02, -9.433228179286410e-03, 2.951620058049969e-02, -3.201300360701765e-02, 1.066963011495576e-02}
			{2.455168766797918e-02, 1.800686929060553e-02, -1.334386215160766e-03, 3.288919972230634e-02, -4.747918130693998e-02, 3.235454574715400e-02, -2.228758151715673e-02, 1.035742017887276e-02}
			{-7.215152849575786e-02, -7.113327668186850e-02, -3.669696443946725e-02, -4.008535568212072e-03, 2.940296621059675e-02, -1.932369181091203e-02, 2.784122062782374e-02, -5.230965064483094e-03}
			{3.488118692444942e-02, 6.295452090764518e-03, -2.071494613166026e-02, -7.125729167934852e-03, -3.276517980930731e-02, -3.663467302719275e-02, 8.613687214200146e-03, -3.923789864100029e-02}
		0-4
			{2.647816715043999e-02, 4.452123217158665e-03, -1.118433820120725e-02, -6.953646617576006e-02, -5.330046964646895e-02, 5.792052257805877e-03, -4.920197878100800e-02, 1.994762613404491e-02}
			{2.897169490322072e-02, 4.069018702304718e-02, -1.104475054689988e-02, 1.058231132227492e-02, -4.384500240025756e-02, -2.638198766828909e-02, -9.877859429605838e-03, -1.571856812466353e-02}
			{-7.006404887328810e-02, -8.793590803894263e-02, -2.883247117786013e-02, 3.970638873753933e-02, 3.309621878770637e-02, 1.672697428884586e-02, 2.545742450532392e-02, 1.486117873829421e-03}
			{3.783089923163063e-02, 1.769917263735868e-02, -8.750440475991340e-03, -1.893212681995378e-02, -4.465905026148395e-02, -1.861267331956733e-02, -1.406828269301973e-02, -5.827405974792698e-03}
		0-5
			{3.765296143604133e-02, -2.779538775999947e-03, -3.349807697594184e-03, 9.701182702520746e-04, 4.074144527121420e-03, 1.590168563224903e-02, 1.205491544642616e-02, 1.594761462022863e-02}
			{-2.275336097364916e-02, -1.815422188888527e-02, -4.404579436493389e-02, 8.866709172901706e-03, -3.842588708659279e-02, 3.942015231538262e-02, -1.693198561408077e-02, 1.926324241019238e-02}
			{-2.703763860920304e-02, -5.311818013925479e-02, -2.875788223429741e-03, 4.106973731455338e-02, -7.253601886274684e-04, 5.119916125883932e-03, 8.282170768303457e-03, -1.325141179476637e-02}
			{3.075534832534412e-02, 3.447445498865687e-03, -1.299970229517028e-02, -2.165381624371524e-03, -3.513129034615352e-02, -4.872229541671519e-03, -7.266560544954124e-03, -5.603264719261156e-04}
		0-6
			{2.286117616994684e-02, -1.422913548722045e-02, -2.162590121661934e-02, -4.108626925533731e-02, -3.788074445058207e-02, 1.074875426391027e-03, -1.795550693926830e-02, 8.213917632302734e-03}
			{1.894639260077897e-02, 3.501765526913565e-02, 4.944589716262678e-04, 2.715396998368319e-02, -3.143933447032639e-02, 1.236864334515347e-02, -1.256023290605396e-02, 8.921762725325282e-04}
			{-3.086753964814905e-02, -5.135411641045322e-02, -1.201471068610994e-02, 1.969293614522131e-02, -3.787915860548501e-03, -4.080168946406655e-03, 5.433003303470504e-03, -1.113097808257825e-02}
			{1.157345707818053e-02, 1.047658790103331e-02, 3.715953406146554e-03, -8.026833294518617e-03, -2.530584925049653e-02, 2.425861343781393e-03, -1.628259994721516e-02, 8.246535532580661e-03}
		0-7
			{1.589895497566484e-02, -4.243179974298771e-03, -5.531476657765113e-03, -3.376261615862337e-02, -1.050373836909485e-02, 2.230364879367782e-02, -1.418411635456516e-02, 2.319023818916871e-02}
			{6.633709174716969e-03, 4.631797084682652e-02, 1.559116803699264e-02, 2.590799277149316e-02, -2.615079164715856e-03, 3.016678198903374e-02, -8.261106014105048e-03, 1.438019882740559e-02}
			{-4.170664187558606e-03, -2.849135547005786e-02, 5.351359311430181e-04, 2.105448351934178e-02, -1.538446403107861e-02, -2.741179817843274e-02, 5.142945014748688e-03, -2.695915780980064e-02}
			{1.664993795791497e-02, 4.629191366514630e-03, -8.819165843998849e-03, -3.410392047288647e-03, -1.168886288606905e-02, 5.456884678740274e-03, -5.070342829465438e-03, 1.252186212335618e-02}
		0-8
			{2.277002670504886e-02, -1.071479984376418e-02, -1.421867842261328e-02, -3.434551234834013e-02, -3.068160814876796e-02, 7.315579263895988e-03, -1.413611403604418e-02, 7.564512055482135e-03}
			{-1.052500707682991e-02, 9.849418875629093e-04, -2.878935101194013e-02, 9.978764135729496e-03, -3.555050857880993e-02, 2.402651511966753e-02, -1.302518097666389e-02, 9.346061614641151e-03}
			{-1.667836307882151e-02, -3.710809071546675e-02, 2.759713004270632e-03, 3.229604008646978e-02, 5.625358378261426e-03, 4.831377460609900e-04, 9.737580460761239e-03, -9.914706179364763e-03}
			{2.693782617427494e-02, 5.286935976586733e-03, -8.320066644803380e-03, 1.026996225546539e-02, -9.205251788506390e-03, -2.750456776577977e-03, -9.688417324902129e-04, -3.226814038381599e-03}
		0-9
			{4.357524355428592e-02, -4.254282783173437e-03, -8.884572864053097e-03, -4.132123650814006e-02, -6.451278690546344e-02, -5.978148092817565e-03, -3.197884444983064e-02, 1.109838928902019e-04}
			{-3.357833028723049e-04, 3.764327975992384e-02, 1.527453675735566e-02, -2.443065718452378e-02, 2.483119090193166e-02, -2.854151104537629e-02, 9.416396898655000e-03, -5.943703982843442e-03}
			{-3.349543723366426e-02, -3.495981581699592e-02, 1.221518971328319e-02, 8.676059697618171e-03, 5.243119531190304e-02, -7.832890681122015e-03, 2.956426561926657e-02, -6.135618170954674e-03}
			{1.242384287110833e-02, -6.812717215328437e-02, -4.293430710813800e-02, 1.259205368289979e-02, -7.124087820387943e-02, 2.622567643724244e-02, -1.589066897841035e-02, 9.196357542431309e-03}
		0-10
			{1.754781015119598e-02, -1.843134936485690e-02, -1.199881009893174e-02, -7.797059306314074e-03, -3.655502860760512e-03, -7.589903907097947e-03, -1.695500512122104e-03, -1.766332110249518e-03}
			{8.691211103733587e-03, -5.597289034721845e-04, 3.866006184539156e-03, -8.498280138703049e-03, -2.467595433491865e-03, -4.549839949004924e-03, -5.516905748313486e-04, -4.933795353284570e-04}
			{6.355134265317280e-02, 7.125105037307509e-02, 6.406638515304393e-02, 2.378197994655896e-02, 2.744198767802763e-02, 4.801826191162272e-03, 4.544099007570811e-03, -1.748281900629829e-03}
			{-3.925587240744486e-02, 5.214323121015943e-02, -2.785804802424745e-02, 6.120235475180508e-02, -1.553651270378044e-03, 3.226017682329285e-02, 2.749622749875793e-03, 7.948545869580546e-03}
		1-0
			{5.532157614246873e-03, -4.336602079567095e-02, -3.676657140307912e-02, -1.029164092898036e-02, -3.117760143478313e-02, -3.853393949356740e-02, 6.104540442372203e-03, -2.162617038047774e-02}
			{3.645549612841788e-02, 1.166629773338061e-01, 8.916402666821470e-02, 5.710567979005875e-02, 5.362717988933945e-02, 4.486800247134471e-02, 1.741385157476512e-03, 1.754917177784503e-02}
			{-1.974563485679001e-02, -3.037968185022271e-02, -2.411084418248456e-02, -3.292311224125585e-02, -1.274764968014846e-02, -1.433164348686522e-02, -8.322535261095313e-03, -6.710036638613145e-03}
			{5.715520586171624e-03, 2.569840101345104e-02, 6.331919318824404e-03, -5.114985031752543e-02, -3.776689080412970e-02, 1.607077563191004e-02, -1.541768990719435e-02, 2.585920470542645e-02}
		1-1
			{2.139765980731875e-02, 1.097739749904729e-02, 2.739766471030295e-02, -1.310641844761345e-02, -3.257761411173802e-02, -3.043755049992220e-03, -1.688788993109530e-02, -1.451807890737566e-02}
			{5.317498976466591e-02, 5.183520491889766e-02, -7.467350255813985e-03, 6.448161422402485e-02, 1.871624153627935e-02, -6.075056407783846e-02, 5.680269543192130e-02, -3.509490949994685e-02}
			{-2.108872638519757e-02, -2.695713558706456e-03, 1.026840316911925e-02, -4.550101477085667e-02, -9.835719885967545e-04, 4.394436630824195e-02, -4.063951475491830e-02, 2.359285188008559e-02}
			{-8.126790776704811e-02, -2.511067347788961e-02, 3.992226768307335e-02, 1.794015575819913e-02, -2.557059151075195e-02, 9.998344472023144e-03, 1.060473474878366e-02, -1.028331279290516e-02}
		1-2
			{7.644227186258774e-02, 3.497327222150510e-02, 1.078600951109708e-03, -5.087471843843829e-02, -5.789538285082671e-02, -2.714250760681435e-02, -2.650815422518116e-02, -3.817497108390404e-03}
			{6.084688979587988e-02, 1.013913395577069e-01, 2.345986919844251e-02, -2.117692496857522e-02, -3.541046189124081e-02, -1.880665896561082e-02, -2.157523237353434e-02, -1.216447292708902e-02}
			{-5.538524396807433e-02, -5.080130748235131e-02, 7.219719874526306e-03, 4.130287901904918e-02, 3.488600077094026e-02, 1.877593585681708e-03, 2.372768548401128e-02, -2.154930276397830e-02}
			{-4.377106560723435e-03, -1.935379755963436e-02, -2.401829051888862e-02, 1.329621849235853e-02, 1.236140556466269e-02, -6.038532179699069e-03, -5.445453758610862e-03, -1.930803205957064e-03}
		1-3
			{4.711508894985697e-02, 3.371073921466947e-03, -5.584339788173925e-03, -8.234486764279758e-03, -1.481600556689117e-02, -1.359352798451094e-02, 4.830378639122891e-03, 2.565775879367457e-03}
			{3.046741148996336e-02, 7.074008474628005e-02, 7.069729681004897e-03, -8.220551114686473e-03, -1.475796817099896e-02, -1.184881751102151e-02, -8.249167682259079e-03, -6.018446801033256e-03}
			{-1.217798140935302e-02, -1.278484054024515e-03, 2.718932701013395e-02, -5.672822696392166e-03, -1.078586420260735e-02, -1.249356943411720e-03, -1.745993567543801e-02, -2.281480408165871e-02}
			{4.354435651878597e-02, 1.629464618766373e-02, -3.006119583226285e-02, -3.505805651057712e-02, -2.678325758275253e-02, -1.257358247844443e-02, -4.404276856750204e-03, 6.360825651480172e-02}
		1-4
			{5.299818968278328e-02, 1.000589574803138e-02, -7.951605122554569e-03, -2.150458572039981e-02, -1.342346322090171e-02, -3.000934907967003e-04, -8.104061604335342e-04, 1.943089686389393e-02}
			{4.580994626175171e-02, 8.774383532301129e-02, 1.643451914390511e-02, -2.226744926586043e-02, -4.177592047254538e-02, -2.726124588989447e-02, -1.677154462418668e-02, -1.786375655943701e-02}
			{-3.416794423200686e-02, -2.558042413983503e-02, 2.214247391897823e-02, 2.660327195815038e-02, 1.528604136025184e-02, -3.016115364924824e-03, 3.857102827075024e-03, -2.100998142700460e-02}
			{-1.177447347216979e-03, -3.567175254232147e-03, -5.701813738093652e-03, -1.410452000277039e-03, -1.704900766509883e-02, -3.139561344194193e-03, 7.471003102820139e-03, -2.144765166453941e-02}
		1-5
			{3.669536262613177e-02, 3.847175544679365e-03, 3.405262666284048e-03, -8.501776783349159e-03, -1.428450028047109e-02, -4.447305990643133e-03, 1.285590304233372e-03, -2.111696708821189e-03}
			{3.451330756717688e-02, 8.335759897700082e-02, 1.650372458175903e-02, -2.772150801503093e-02, -4.282991250194580e-02, -2.532559704241136e-02, -3.281021393636177e-02, -1.345737328229715e-02}
			{-3.441589955743033e-03, 5.952232010439787e-03, 3.274960260953719e-02, -2.031759705383476e-03, -1.411974158566342e-02, -1.076264021271966e-02, -2.249433963239832e-02, -2.282655798332245e-02}
			{-2.577825868546982e-02, -1.090359746367429e-02, 1.270450200622642e-02, 1.566263689374042e-02, -1.592531383609218e-02, 3.736945510765820e-03, 3.341965307181264e-02, -1.232327211819120e-02}
		1-6
			{3.729634107462371e-02, 1.675296399196347e-02, 1.450128600444498e-02, -3.100242313090989e-02, -4.201568800141852e-02, -1.107325730814324e-02, -2.204676179274383e-02, -9.939967222593491e-03}
			{4.929554126664528e-02, 9.224388943473326e-02, 2.688228014648589e-02, -1.702594061977537e-03, -2.059067911261963e-02, -1.941295756322164e-02, -1.174771700498903e-02, -9.984869213567539e-03}
			{1.709238274939145e-03, -1.392259554797616e-02, 3.930414679330157e-04, 6.834599171057361e-04, -7.822265778851327e-03, -2.275822500318789e-02, 1.069190851268316e-03, -2.482703901944090e-02}
			{-3.943979984469578e-02, -2.395951567818334e-02, 1.207801461703365e-02, 2.772537762841399e-02, -2.000736639099969e-02, -7.020191781933073e-03, 5.787009391458354e-02, -1.287865909820256e-02}
		1-7
			{1.738915167802904e-02, 5.284206053639328e-02, 6.698814841797361e-02, -4.920964811570275e-02, -2.521655883983162e-02, 4.199451778981721e-02, -6.138652520086958e-02, 1.985730363873145e-02}
			{1.615363550540024e-02, 2.533038592927491e-02, -4.267411381471763e-02, -2.127835846709107e-02, -6.512385662345058e-02, -7.777987709468541e-02, -2.659168266655889e-03, -4.732380808113989e-02}
			{1.577996885578360e-02, -5.391749590881170e-03, 1.760718642453759e-02, 5.021845425083949e-02, 4.383221314676841e-02, -2.299070971637733e-03, 3.501953591345419e-02, -5.205299710201930e-03}
			{6.554388962276557e-02, 2.638254871252872e-02, -2.932220222241912e-02, -2.835595364902339e-02, -2.574457426055631e-02, -9.887657465330138e-03, 1.657694373797866e-02, 2.472416534755463e-02}
		1-8
			{-1.695352797131102e-02, -2.014281391697808e-02, -1.909884928412058e-02, -7.743575998761895e-02, -4.780052266179734e-02, 9.084258867456417e-03, -4.742400544348530e-02, 1.602046921007009e-02}
			{2.931222229174795e-02, 6.108262265124910e-02, 7.431710381799537e-03, 2.064648237098290e-02, 1.523939003676330e-04, -1.812929882615568e-02, 9.628031173034573e-03, -6.802342925251215e-03}
			{1.357428162404870e-04, -1.189090750181586e-02, 5.150350774870011e-03, 1.122909609182533e-02, 1.963382994348558e-02, 9.392383659090785e-04, 1.213741354579072e-03, 5.446531653280001e-03}
			{6.869419325888709e-02, 3.433869307684038e-02, -2.733556279849481e-02, -4.463280068961351e-02, -2.787976219675802e-02, 2.534909627471463e-02, 4.755825360680765e-02, 2.738841550269897e-02}
		1-9
			{-1.277059330678719e-02, -3.172646279578914e-02, -2.348493194248395e-02, -5.152102318958808e-02, -4.944625349675878e-02, -1.378238227755240e-02, -3.351811064738199e-02, -5.278434563695048e-03}
			{2.704462289997841e-03, 5.950567826428618e-02, 1.684491033480630e-02, 6.354666515678611e-03, 8.972445264091876e-03, 1.196841693733337e-02, -8.008126903378588e-03, 7.996272598620313e-03}
			{1.902746887951145e-02, -8.318858235865455e-04, 4.644741440314180e-03, 1.103457033529411e-02, 2.289907829245231e-02, 1.867521676581961e-03, 1.162384709731621e-02, 5.288328835282395e-03}
			{2.489693131968811e-02, 2.355513186858728e-02, 4.430931498933113e-03, -1.638358327620930e-02, -1.998789894745385e-02, 1.767961757533481e-02, 3.595926724688078e-02, 2.684084417771997e-02}
		1-10
			{5.821256118516662e-02, 9.205748194563015e-02, 5.649431294646835e-02, 5.751038593554986e-02, 3.707848505016405e-02, 2.282074034212100e-02, 6.863572848407655e-03, -1.540678285361012e-03}
			{-9.315531158612089e-03, 1.296677968137720e-02, -8.775852873479444e-03, 8.063381529609440e-04, 1.275975247351266e-03, -1.545650388548300e-03, 9.178941314141896e-04, -2.128827540201646e-03}
			{-6.282163781656058e-02, -1.764366006785899e-02, -1.111384454752091e-01, 1.377642682441761e-02, -8.767829381061840e-02, 8.028913916370499e-03, -2.670636804772466e-02, 1.420607484327431e-02}
			{-2.831473592813585e-02, 1.053507784423125e-01, -1.199489734742479e-01, -6.396124696621819e-02, 9.997141845873093e-02, -6.698340747057963e-02, 2.697804511264022e-02, -6.965068097426502e-02}
		2-0
			{9.197047974109614e-02, 4.342515179133210e-02, 8.293393449973363e-02, 7.275028259395060e-02, -5.595273946809416e-04, 5.183400170148496e-02, -7.738893123216710e-03, 1.322781593709751e-02}
			{1.976247531642872e-04, -5.399813708468323e-02, -5.955168823778521e-02, 4.262802915242189e-02, -8.464531533984104e-02, 5.075929797627904e-02, -2.968693588621462e-02, 1.029246780376118e-02}
			{-6.843045752598229e-02, -8.915318601960445e-02, -6.353474587418649e-02, -3.207177064967195e-02, -6.884973905147115e-03, 6.892734036935894e-03, -1.327426748100045e-03, 5.102261522796839e-03}
			{-1.245442697588306e-02, 2.856274184429391e-02, 8.581469510938447e-03, -6.517017053715563e-02, -2.364471195756465e-02, 4.774095784120483e-02, -2.165669092496542e-02, 5.836824808447124e-02}
		2-1
			{6.790253511863209e-02, 3.910067426781700e-02, 3.550779470199935e-02, -1.654184849693097e-03, -3.443268065296467e-02, -2.624295624969600e-02, -9.492081766632523e-03, -2.346938360973555e-02}
			{-2.470563729173628e-03, 6.403107040470317e-02, 3.369840929102059e-02, 2.387112694311089e-02, 3.200809408809752e-02, 4.223805795831676e-02, 1.608409986913617e-03, 1.705261050381340e-02}
			{-5.791656327837780e-03, -7.132924342378517e-03, 2.116921700468347e-02, 2.200107592946209e-02, 2.946581146106557e-02, 1.930239710146909e-02, 1.383616270913812e-02, 3.570941057448347e-03}
			{-1.652298403773667e-02, -7.089343289308918e-03, 4.385849746370638e-03, -4.489676846241246e-03, -4.216676577249185e-02, -1.332863823165798e-02, 4.646796227590609e-02, 2.436773906097534e-02}
		2-2
			{7.913426127498227e-02, 3.110858287582726e-02, 3.799905720754775e-02, 1.086325798344014e-02, -2.631384182939726e-02, 2.898166123882800e-02, -2.028454731650867e-02, 6.983416748343762e-03}
			{1.008188849353032e-01, 3.967917592953321e-02, 2.654251676887705e-02, 1.114420248424417e-01, -9.071825931690812e-02, 7.543716236170267e-02, -3.371580071743760e-02, 8.756684178974744e-03}
			{1.629927043487128e-02, 4.873391623072341e-02, 7.622615904748019e-02, 4.168970935572019e-02, 8.635092741857983e-02, 2.287899937828025e-02, 2.410564538215369e-02, 1.174551228877473e-02}
			{-5.881234402699296e-02, 7.004793168873061e-02, 2.203686567436816e-02, -7.981351458710782e-02, 8.148042507433649e-02, -1.122370099500655e-01, 2.900270729687357e-02, -2.585276066930075e-02}
		2-3
			{-3.673640865688500e-03, -3.987226483195205e-02, -4.047998628744610e-02, -3.862737053901526e-02, -2.830661624693076e-02, -1.532374493973289e-02, -9.295589001647059e-03, -5.249454806636074e-03}
			{-2.104747876841877e-02, -2.379450040555204e-03, -5.195637289947436e-02, 1.143035417478044e-02, 1.793032290519930e-02, -1.771261790368115e-02, 3.126630896988689e-02, -2.824104302755532e-03}
			{-6.022352344047932e-03, -1.612003020590548e-02, 2.797390596024827e-03, 3.063947170555309e-03, 3.721664308900611e-03, -5.724461029595486e-03, 9.333003752368925e-03, -1.218695014123463e-02}
			{6.805416901885966e-02, 3.902526784464894e-02, -2.151705491690954e-02, -4.398905687165003e-02, -2.259989139097820e-02, 1.903478890200391e-02, 1.142516429487801e-02, 4.013901022379440e-02}
		2-4
			{5.559043643764654e-02, 1.043099436690044e-02, -5.737589195700338e-03, -2.551951320179745e-02, -4.942039815805212e-02, -4.479555881838585e-02, -1.171796226781218e-02, -2.623501665712799e-02}
			{1.460462165891551e-02, 5.902176109892023e-02, 8.574922582412346e-03, 7.390102715013418e-03, 5.234764545229548e-03, 4.581356762878183e-03, -5.489457768929556e-03, 4.296261245944566e-04}
			{-1.728445209814162e-02, -2.352817431697985e-02, 6.404483153461931e-03, 2.720837719143095e-02, 4.759069400682815e-02, 2.721449523840606e-02, 1.593047481304463e-02, 1.770887916305217e-02}
			{6.994073745005635e-03, 1.855669069310755e-04, -4.191803708560630e-03, 8.678586052734963e-03, -7.113141788689670e-03, -1.035522465604949e-02, 7.068459445062539e-03, 8.226782859452787e-03}
		2-5
			{3.221042492195927e-02, 1.595176423651739e-02, 1.586488026893723e-02, -3.153445323344564e-02, -3.352853586191579e-02, 1.666057827759169e-03, -2.745044960589364e-02, -3.737075178185826e-03}
			{7.110025297866269e-03, 4.447344009668094e-02, -1.238956431160301e-02, -1.417364113528558e-02, -2.861910248365863e-02, -2.993446545924143e-02, -5.696181355800184e-03, -2.265644030102961e-02}
			{-2.797731552740229e-02, -3.178722225818950e-02, 6.498978392089396e-03, 3.084267779631264e-02, 4.050435460088776e-02, 2.119242070312038e-02, 2.807055326546346e-02, -3.612433082405400e-03}
			{-3.437526436308318e-02, -4.904854345402161e-03, 2.875154679322775e-02, 1.661107802132094e-02, -2.099726330596526e-02, -1.155099243425283e-02, -1.541833416854924e-02, -4.914272706281668e-03}
		2-6
			{5.252134956383445e-02, -1.702010418845371e-02, -2.882872699953425e-02, 4.362876356709305e-03, -3.321677194134736e-02, -6.115553442315161e-02, 1.749051626173109e-02, -3.318628883743440e-02}
			{4.987446831065573e-03, 5.280520965645154e-02, 9.342769616540314e-03, 4.708881718447110e-03, -1.157938401823935e-02, -1.013392245609229e-02, -9.663027219666092e-03, -1.224336101866689e-02}
			{7.324192805599110e-03, -1.142324474728601e-02, 1.183280492101803e-02, 3.352556396796549e-02, 2.156268151698001e-02, -9.500328061876034e-03, 2.637217639283543e-02, -1.714370858106319e-02}
			{5.433642746873914e-02, 3.051199214505130e-02, -2.383675241393057e-02, -4.745352140562704e-02, -3.275643277640363e-02, -2.294800885657142e-03, -7.272080919911300e-03, 4.572898861799574e-02}
		2-7
			{7.447160842850679e-02, 1.097961162130279e-02, 5.073189362672678e-03, 3.585578498723269e-02, -8.138827256665437e-03, -4.877968216329115e-02, 2.936598700017586e-02, -2.966457581396625e-02}
			{-2.362069933820864e-02, 3.684767880761693e-02, 5.996741860596413e-03, 1.674379525218636e-02, 3.723862848492703e-02, 3.596356408344235e-02, 1.057927341768384e-02, 2.123664696606995e-02}
			{1.542548958928219e-02, 6.024750471142592e-03, 2.532928989678541e-02, 2.283550494655014e-02, 1.721275019001766e-02, -8.228225605776580e-04, 8.335864123370141e-03, -4.220445583675410e-03}
			{8.841701597216041e-02, 2.065289746043734e-02, -6.825999903782913e-02, -4.144700019601623e-02, 5.094704383301433e-04, -4.258377180009992e-03, -6.759979322763085e-04, 7.363959739174947e-02}
		2-8
			{1.873509550882867e-02, -1.955723373536104e-02, -1.862525229757998e-02, -1.492997973560858e-02, -1.944902969992926e-02, -1.931483669601685e-02, -2.454490808298666e-03, -8.313250395008652e-03}
			{-4.907979159994427e-02, -1.544490063062317e-02, -5.607825136594340e-02, -2.284887615279915e-02, -1.197742847298210e-02, 7.405603238947506e-03, -3.609731572450242e-03, 9.084923557030349e-03}
			{-2.066469558425529e-02, -1.103827462953679e-02, 5.801458768711202e-03, -3.399827713816150e-02, -1.290707436385997e-02, 1.309530916588415e-02, -3.145499715122794e-02, 5.283494944589549e-03}
			{1.415292949851834e-01, 5.959674216555671e-02, -5.433258965512842e-02, -3.864135853095368e-02, -1.037455963244648e-03, -1.011580316641474e-02, 1.173468108231906e-02, 6.514046113815909e-02}
		2-9
			{2.124910304985394e-02, -1.160610140603022e-02, -1.501519141143917e-02, -1.066841636294913e-02, -7.530078715928895e-03, -4.255929143027794e-02, 1.025622255620253e-02, -2.170623804379750e-02}
			{-8.222950249621273e-03, -5.647952575249239e-02, -8.972893572730012e-02, 3.286756495498851e-02, -6.025188468083224e-02, -2.403169024394791e-02, 6.465586338751455e-03, -1.699062890883056e-02}
			{1.133508975940072e-02, -2.607583002124238e-02, -2.355703474616254e-02, 4.267010910720809e-02, 4.949502423828061e-02, -6.682070526807235e-02, 6.121707123577733e-02, -3.494815635158375e-02}
			{3.522387312434742e-02, 2.528289897671078e-03, -3.895805183127216e-02, -4.690787050437311e-02, -4.732779685137116e-02, 2.241552373812912e-02, 2.769757327724483e-02, 1.105533802913633e-02}
		2-10
			{5.264319016997528e-02, -2.976684141296618e-02, 6.337011701873266e-02, -1.940982490022438e-02, 4.057142604104574e-02, -9.626738579866411e-03, 5.484679304034666e-03, -9.630751326610549e-03}
			{-5.394742526787682e-04, 7.288873968825167e-02, 2.951760872040008e-03, 2.962441103784776e-02, 8.439284656109273e-03, 1.380976237494439e-02, 3.918709552470622e-03, 2.563645729440637e-03}
			{8.058177076250335e-02, 1.277571306324045e-01, 1.104088030243001e-01, 7.179345772348980e-02, 4.009359026310466e-02, 2.721009538261995e-02, 1.286075349050623e-02, 9.930563798914252e-03}
			{8.723301888175101e-02, 2.358477436930568e-01, -2.984587274652653e-02, 5.842037467517982e-02, -2.089197078207055e-02, -6.061818511168247e-03, -8.566480042330406e-03, -1.153094861687816e-02}
		3-0
			{2.724521751744550e-02, -4.521762519671851e-03, -8.360828565798678e-03, -1.689140387206232e-02, -2.517202012409447e-02, -5.055741460870396e-02, 5.486379863708001e-03, -2.784379823359101e-02}
			{-3.940929902429121e-02, -1.739109170473611e-02, -6.353359663748853e-02, -8.686033176294019e-03, -2.256747043204252e-02, -2.563351827643117e-02, 3.397888272384742e-03, -1.431103768723692e-02}
			{4.491256538858761e-02, 6.152642206275558e-02, 3.315574560813671e-02, -4.967632152836394e-02, -1.662228358946089e-02, -5.842859328421529e-02, -1.890844270810417e-02, -2.104274775689863e-02}
			{-7.964761041799372e-02, -1.210201283042657e-02, 2.149193086582849e-02, -1.042740435806756e-03, 7.755542477072692e-02, 9.266549827606446e-02, -4.877335009771484e-03, 6.686465408823493e-02}
		3-1
			{1.469706331957488e-02, -2.645180694627225e-02, -1.106182312737625e-02, 3.191334615623428e-02, 4.288602351197053e-02, 2.251807885372352e-02, 3.637505352860683e-02, 1.903491455647702e-02}
			{2.874157860236618e-02, 4.602172017976545e-02, -7.994841226355508e-03, 3.552153293575971e-02, 7.078124453433443e-03, -3.758549003599796e-02, 2.557348034273694e-02, -2.114887031502058e-02}
			{-2.352198907891111e-02, -2.537670571919695e-02, 8.687013236548701e-03, 2.379436393581955e-02, 3.744185505790537e-02, 1.923187968767894e-02, 8.894950950883199e-03, 6.242551125975350e-04}
			{-2.711618138184842e-02, -4.635988915996022e-03, 1.463923905295114e-02, -3.514690663374757e-03, -2.875846272765718e-02, -7.321182632030247e-04, -4.777941800396687e-03, -1.502415466871771e-02}
		3-2
			{2.434873937565560e-02, -1.023789616764895e-02, -2.633302440107612e-04, 2.414967352247204e-02, 4.551738819468620e-02, 3.350536505647184e-02, 1.586043300003608e-02, 4.074163954003189e-02}
			{4.933595374501278e-02, 7.605799739883114e-02, 1.717084953405116e-02, 3.198809502099507e-02, 2.654313043432276e-03, -3.083920994519838e-02, 1.163380672029261e-02, -1.541247721406581e-02}
			{4.896687560024391e-03, 2.234777436347817e-02, 5.955216182005130e-02, 3.442712060876327e-02, 3.902639357734473e-02, 3.360276438622126e-02, -9.927243839514006e-03, 1.261511280478836e-02}
			{-2.320135992342523e-02, 6.696959800285495e-03, 3.504569162983722e-02, 1.439810787969719e-02, -1.734071199723520e-02, 3.811605940786031e-03, -9.652602744535574e-03, -1.458503753966897e-02}
		3-3
			{1.560538553197350e-02, 2.064394962421907e-02, 2.887023443048432e-02, 5.340475842088748e-03, 5.219258991211632e-02, 1.800622058601779e-02, 1.556920564958945e-02, 1.537040177389753e-02}
			{-9.697105466496598e-03, -1.099346706029979e-02, -3.733125469281146e-02, 3.141008742551101e-02, -2.127867992016083e-02, 2.621414792544559e-02, -1.708577672415788e-03, 5.558510477018840e-03}
			{8.937454499432558e-02, 1.002150891285601e-01, 1.315725107414429e-01, 7.718834347665082e-02, 2.878926684829653e-02, 4.584955888794668e-03, -5.252099259405917e-03, -1.287065144250486e-02}
			{-4.708575349315789e-02, -7.579634204968901e-02, -5.355100694498890e-02, -2.264970391176755e-02, -5.043661170748395e-02, 5.884283240458728e-02, -2.130395718915627e-02, 2.936663896752709e-02}
		3-4
			{5.028553915978985e-02, 2.220590518130080e-02, 3.265973055295138e-02, 2.650785511742808e-02, 9.667233417438820e-03, 1.136113286539600e-03, 6.839146960792454e-03, -4.537217793361936e-04}
			{3.765937812924373e-02, 6.649052575408949e-02, 9.293466380100450e-03, 2.430691558902830e-02, 2.892466056663959e-04, -2.860225194211373e-02, 8.875601134189700e-03, -1.272238214237814e-02}
			{3.257624832174688e-02, 5.210930540774494e-02, 8.744377555800383e-02, 4.123468609709954e-02, 1.526469172001364e-02, 7.790332556759835e-03, -1.574093527632545e-02, -2.002176497856557e-02}
			{7.042821885576863e-03, 1.760401609962685e-02, 2.679822369964714e-02, 1.889839473983961e-02, -8.536936804253525e-03, -8.152463195950794e-04, 6.124851176247409e-03, 1.757708819906336e-02}
		3-5
			{3.493123880634562e-02, -4.283293153782097e-03, -2.942297014353017e-03, 4.687750222358897e-03, 2.321901618043821e-03, -1.231209909361957e-03, 1.403349754749021e-02, 1.172719989416121e-02}
			{2.986343746162451e-02, 8.163135254809800e-02, 2.577463985721262e-02, -7.513189430660386e-03, -2.755950728374221e-02, -2.011599476766810e-02, -2.378716681229058e-02, -1.073414895042530e-02}
			{3.777326984275358e-03, 1.527334584584729e-02, 4.124627045053506e-02, -9.690878946789179e-04, -1.754943509039598e-02, -1.562109271937271e-02, -3.124284294163815e-02, -2.416616673780014e-02}
			{-1.018096978694127e-02, -2.302788301374174e-03, 4.736327371122134e-03, 9.873416385888776e-04, -1.617992130575350e-02, 8.123816036178167e-03, 1.864962864934303e-02, -7.789916412909878e-03}
		3-6
			{4.576081729013030e-02, 2.216734253878221e-02, 2.622605790432456e-02, -3.959615675893232e-03, -2.352032050902575e-02, -1.066025507613491e-02, -7.819996830483103e-03, -8.586852366046267e-03}
			{-9.818298708165270e-04, 1.918822830492498e-02, -3.294270648128431e-02, 1.334848550441165e-02, 2.835042813819125e-03, -2.678034072834490e-02, 2.223138064446201e-02, -1.222720640303768e-02}
			{-2.363587819109371e-03, 2.127047973306667e-03, 3.709162432689882e-02, 2.493075905838819e-02, 6.964424791577351e-03, -7.766317825920126e-03, -8.295722854359738e-03, -2.395539870875887e-02}
			{1.558414485727181e-02, 1.710047027364701e-03, -1.551987314693151e-02, -4.790201433565348e-03, -6.441792730899234e-03, -1.085357421708877e-03, -3.868236931554726e-04, 2.298426359747459e-02}
		3-7
			{4.346085827301637e-02, 3.958894485926823e-03, 1.307256157868950e-02, 3.242790117488338e-02, 2.085802745929185e-02, 7.376347316806978e-04, 2.620848150369569e-02, 4.559695470179413e-04}
			{2.843842856092826e-02, 4.989601294617362e-02, -3.937298548346489e-03, 2.825946111249049e-02, -2.016225430991844e-03, -3.688464103621695e-02, 1.656230406977133e-02, -1.924685869564836e-02}
			{8.686926867868967e-03, 8.272916200472855e-03, 3.149675489773240e-02, 1.590704311543910e-02, 9.065027524164876e-03, -3.447802992059587e-03, -7.999969350362450e-03, -1.167426877191475e-02}
			{-1.803747587788122e-02, -2.538729167933747e-03, 1.028546361284689e-02, -1.421281214296869e-03, -2.238504074719818e-02, 1.202319445779002e-04, -4.990688623855005e-03, -1.731538688714178e-02}
		3-8
			{3.660363264654790e-02, -1.957770593368191e-02, -5.143904228374542e-03, 5.908169935668076e-02, 4.635161579592062e-02, -7.349447240867729e-05, 5.162275702506729e-02, 1.443421669453635e-03}
			{1.214872268817945e-02, 6.019676425461709e-02, 1.898100408789935e-02, 3.006511453484044e-02, 2.670298163904059e-02, 6.722740353953723e-03, 9.052736813181092e-03, 4.004287186198571e-03}
			{1.574230537190670e-02, -8.345176760139848e-03, 2.099335346744167e-02, 6.225971596393133e-02, 4.305524374600825e-02, -8.132151532745147e-03, 3.399305104057057e-02, -2.061710758102923e-02}
			{-6.302455173728574e-03, -2.047646992647338e-03, 1.144333524153078e-02, 2.127518678034168e-02, -1.016321587081251e-02, -7.498745944410685e-03, 9.726809934346410e-03, -2.347754960232672e-02}
		3-9
			{7.348937448139899e-02, 2.452071313082153e-02, 2.674836894549157e-02, 1.635708408314311e-02, -5.269701110530508e-02, -5.448512183319957e-02, -3.412374995141672e-03, -4.054253793487429e-02}
			{-4.985434225169142e-02, 3.213917951891975e-02, -3.612585735960642e-02, -3.840601454867358e-02, 3.900923780016639e-02, -5.003529577546988e-02, 2.386713620213799e-02, -1.328074291019094e-02}
			{-3.038283626294508e-02, 3.409580006656322e-02, 7.982501457413410e-02, -2.955011187231830e-02, -2.858161656357674e-03, 6.267962337561590e-02, -6.999068329614334e-02, 1.663578479060395e-02}
			{2.954673413444810e-02, -8.718546000018465e-03, -3.165697134882444e-02, 2.864988104409342e-02, 5.556994738224694e-02, 5.071637491326970e-02, 5.156340949915582e-02, 6.736490849081948e-02}
		3-10
			{3.618617526134291e-02, 1.420623445295351e-02, 7.673165602625440e-03, 1.274233157571207e-02, 2.321820283668101e-02, -3.769041155944524e-03, 6.588730878671275e-03, -2.354240784447581e-03}
			{-8.072030404089802e-03, -8.441334260093752e-03, -7.635663143360369e-03, -7.062518663686818e-03, -8.018043301412535e-04, -4.666166069177512e-03, 1.763376810831148e-03, 2.163023287780981e-05}
			{-1.352477142275794e-02, -3.277580649722679e-02, -2.005688051248820e-02, -1.983742082955490e-02, -3.272633975707456e-03, -2.615911445058014e-03, -4.842443372122174e-03, 5.807745890826501e-03}
			{1.720391255357151e-03, -1.498865860493480e-01, -4.723844437021153e-02, -5.295661764479846e-02, -1.905056289578479e-02, -7.746907728110039e-03, 2.744138698663640e-03, 6.249770700727339e-03}
		4-0
			{5.775916288604270e-02, 2.661946934030832e-02, 7.853453468635523e-03, -3.583749138080759e-02, -4.572933702702242e-02, -3.286520949665934e-02, -1.985674583267254e-02, -1.256471574833385e-02}
			{-5.953269425780652e-02, 3.048506244960992e-02, -1.417406777911290e-02, -7.094513566619069e-02, -8.125293213441230e-03, 4.730678313579408e-02, -4.652135203177031e-02, 4.303477730528271e-02}
			{-7.214982620935744e-03, -2.055221844449349e-02, -7.556745633522334e-03, 5.413215749633399e-03, 1.798557153518386e-02, -1.788431358946957e-02, 1.778834152805255e-02, -1.096001127488073e-02}
			{1.179078739648011e-02, -3.962426664836300e-03, -1.290495055340468e-02, -5.613917647830324e-03, -3.072556119561934e-02, -3.083792642837487e-03, -3.099582001227629e-03, -1.145391738580940e-02}
		4-1
			{4.671638287607220e-02, 1.959199846003833e-02, 1.213025343157120e-02, -2.896908814851963e-02, -4.111592955174149e-02, -1.216160873413012e-02, -1.773810750716116e-02, -1.823900443274367e-02}
			{-2.481924034007880e-02, 3.307888199135056e-02, -3.744018410425937e-04, 9.209915832242031e-03, 3.083732850567128e-02, 3.815258231661472e-02, 6.668838283336618e-03, 2.030185601215976e-02}
			{1.541047443789402e-02, 3.818222314919516e-03, 1.792199192361621e-02, 1.645742769934849e-02, 2.211759668545260e-02, 6.629719224675327e-03, 5.588961639981156e-03, 7.480678732191234e-03}
			{1.846672948862885e-02, 7.156801173586868e-03, -1.268554925655446e-02, -2.027771779277712e-02, -4.110730995731868e-02, -3.164571353071730e-02, -1.038230357782980e-02, 1.132257799223793e-02}
		4-2
			{6.150997048410708e-02, 3.542056962906280e-02, 3.438812029625767e-02, 1.273353735479918e-02, 1.823803855018440e-02, 3.094185643771042e-02, 4.442131331824045e-03, 1.433429416150987e-02}
			{9.755685228832070e-03, 7.650144765538451e-02, 5.100549137733787e-02, 3.980717664297050e-02, 2.497938003398677e-02, 2.469504219576540e-02, 8.291779618701620e-03, -8.279207816525169e-03}
			{1.426145230789549e-02, 3.782388959376937e-02, 5.980424360722648e-02, 7.704187314394983e-04, 2.342325485953575e-02, 5.072249375257275e-02, -2.791425055291515e-02, 3.284926951165719e-02}
			{-4.252639740579812e-04, -6.493755790120544e-03, -6.254379681851393e-03, 1.324355426049357e-02, -5.037797154186564e-03, -1.919689598493608e-02, -3.226060763057096e-03, -3.792196208239268e-03}
		4-3
			{7.788365636012831e-02, 1.627063270626653e-02, 1.152997741557473e-02, 4.319150543620266e-02, 3.433004975138237e-03, -3.503931790094122e-02, 4.490486211234788e-02, -4.022973231943679e-02}
			{-1.494390617990537e-02, 6.135444177555751e-03, -4.185257530897587e-02, 9.455745369993744e-03, -1.071608885728557e-03, -2.629680910280726e-02, 3.710112295808774e-02, -3.106649064005990e-02}
			{4.788968872290086e-02, -8.937695401765643e-04, -4.961429844407540e-03, 3.226987848893367e-02, 4.284352544236884e-03, -5.932179053314378e-02, 2.535000731477828e-02, -1.981695848404403e-02}
			{4.395593385663490e-02, 4.137110605994355e-02, 2.084220307494909e-02, 1.452230873577979e-03, -1.388114129958550e-03, 1.408353715161116e-02, -1.451607303080316e-02, 1.934966416194251e-02}
		4-4
			{8.347835269266979e-02, 2.109501536843016e-02, 1.507872277439155e-03, 8.319219642256594e-03, -2.444262487657371e-02, -3.904787787432973e-02, 1.223835080766647e-02, -2.391786339900855e-02}
			{-3.034049659362342e-02, 6.465013380228327e-03, -4.215563182754256e-02, -1.323364972896106e-02, 6.325868658491032e-03, 1.448629710572477e-03, 1.680713591386825e-03, 6.851635649821886e-03}
			{3.539855650281693e-02, 1.338357499036893e-02, 2.862090501813023e-02, 4.164003043661898e-02, 2.435254721247717e-02, -8.877719415694225e-03, 2.396438693618263e-02, -6.616090905967094e-03}
			{3.212286901523206e-02, 3.168313587279998e-02, 3.745481008801610e-02, 3.986442926916664e-02, -5.888632925040230e-03, -1.587819570324699e-02, 1.037805798276632e-02, -1.364464860826400e-02}
		4-5
			{4.778831819907590e-02, 3.717555830494290e-02, 3.276752391957768e-02, -3.483199611878571e-02, -3.920283434819999e-02, 3.295568269529472e-03, -3.793718641718270e-02, -9.593308298552129e-03}
			{-1.999810545284414e-02, 7.471636644315742e-03, -2.798205497000882e-02, 4.734434553587724e-02, 6.689488682483131e-02, 2.568533461682166e-02, 5.052971852173746e-02, 1.759520960322468e-02}
			{1.435806175824557e-02, 7.990596207743597e-03, 2.177212365868695e-02, 6.647133351517057e-03, 8.646717080632313e-03, 1.524365453013208e-03, -1.806712003966388e-05, 2.240614232631000e-03}
			{1.209145229579322e-02, 1.767173806192495e-02, 9.943285930311666e-03, -1.279823530532460e-02, -3.077033942082705e-02, -1.274132695246991e-02, -2.437970557806753e-02, 1.461324526446705e-02}
		4-6
			{6.607769626548908e-02, 1.274166269787300e-02, -1.384008596809703e-03, -7.693895055730929e-03, -4.311561806369526e-02, -4.265697238437129e-02, 6.836005252924549e-03, -3.516851178471277e-02}
			{-1.555550398316878e-02, 3.548745295357113e-02, -1.453231079040093e-03, 1.032897292619180e-02, 1.899698378033636e-02, 2.383007982986600e-02, 1.362405271354365e-02, 1.076872005490893e-02}
			{1.951356012778437e-02, -1.211684241843932e-02, -4.209087821699774e-03, 1.901461104584659e-02, 1.127009333907727e-02, -1.837873899405513e-02, 1.240399612080025e-02, -3.747976567101234e-03}
			{1.952283498341639e-02, 1.616163134339072e-02, -5.671966187245518e-04, -1.487865150507043e-02, -2.181977695264689e-02, 2.538619066030595e-04, -1.085888258461579e-02, -1.969413247460395e-02}
		4-7
			{4.341355646808322e-02, 1.474560694694093e-02, 3.734794175249227e-03, -3.380196083816999e-02, -3.469887743851126e-02, -9.405616323585147e-03, -2.305060156586752e-02, -1.310415320680317e-03}
			{-3.327590057853676e-02, 4.179830525295455e-02, 7.817867218112968e-03, -1.656750180803740e-02, 1.640878267963664e-02, 4.975064126045338e-02, -1.730509266295850e-02, 2.849382145483787e-02}
			{-2.542755142516771e-03, 2.410407124644251e-03, 2.322765075056028e-02, 2.474722369996259e-03, 2.092338883180417e-02, 2.489706857530694e-02, -4.810880572080441e-03, 1.409584445082172e-02}
			{2.250867000419964e-02, 1.115191559443134e-02, -1.025503214208590e-02, -1.550919101030629e-02, -2.428605700535189e-02, -1.098134285174508e-02, -8.941386754161588e-03, 3.634559189573675e-03}
		4-8
			{3.362129267621872e-02, -3.692553614183836e-02, -5.672262328667434e-02, -2.933169596577343e-02, -5.300703951205308e-02, -6.695292920214233e-02, 8.263385394768022e-03, -3.781896454344991e-02}
			{-4.964371818123691e-02, 2.099066886407513e-03, -4.213307007161466e-02, -3.877816600988496e-02, -1.245573107413136e-02, 1.384527781126181e-02, -8.367554264997853e-03, 1.003698335546744e-02}
			{2.456024178754212e-03, -3.335472258256067e-02, -2.879386747612729e-02, -1.840015818135183e-03, -1.011994595580270e-02, -3.936261551785845e-02, 1.269082221143264e-02, -2.001606428863977e-02}
			{3.131744399463814e-02, 2.459973925516945e-02, 9.398023659898860e-03, 4.319455145330121e-03, -7.724198799417132e-03, -3.227721396537499e-03, -1.686117097742553e-02, -1.623156193575022e-02}
		4-9
			{7.139170550507899e-02, 1.321281194765969e-02, -2.953421722853301e-03, 2.936714082481549e-03, -3.269703649774758e-02, -5.651341549036817e-02, 8.888810009272857e-03, -2.749028466599812e-02}
			{-4.453926482170808e-02, -6.504260193447559e-03, -5.631643464795771e-02, -2.493944750627233e-02, 9.013427034726084e-03, 8.841422606962969e-03, 6.916785810807392e-03, 2.450352721215447e-02}
			{-5.016173579021533e-03, -2.330377757255079e-02, -1.171000122474622e-02, -3.050692029724291e-03, 2.848240100120213e-03, -1.288345604121213e-02, 7.578719700048229e-03, -9.627735690264462e-03}
			{1.165627347368686e-02, 2.925424392611319e-02, 3.194575712476912e-02, -4.467091417247410e-03, -2.376577604776484e-02, 3.111113139763116e-02, 2.217665274204718e-02, -4.879821546182967e-02}
		4-10
			{7.615547087994531e-02, 4.894291337631368e-02, 6.277165225805305e-02, 2.046695081629729e-02, 4.307779677813508e-02, 4.720105944004727e-03, 2.627627782186978e-03, -7.770832153892879e-03}
			{-5.632518762283822e-02, 5.280969785031450e-02, -8.610284344227723e-02, 1.675640935585933e-02, -2.212530039494809e-02, 2.198006655302247e-03, -9.298374672440424e-03, 1.085024469349628e-03}
			{-1.558720599405349e-02, -9.375792803501860e-02, -1.678907477717631e-02, -4.571573576168751e-02, -1.061689835981506e-02, -1.516289074030450e-02, -2.357899201405735e-03, -2.362480223038121e-03}
			{2.855990652900286e-02, -1.438742159293757e-01, -1.955289610918941e-02, -6.746361362698478e-03, 2.118221847117534e-02, 4.489521200689819e-02, 8.173795296653988e-04, 1.731818610658289e-02}
		5-0
			{5.971684253138629e-02, 2.878872834847365e-02, 3.137351960222687e-02, 1.302713829567940e-02, 3.581535228029864e-03, 2.632187649595241e-02, 3.532517949700774e-03, 1.731389510703166e-02}
			{-2.619108170576242e-02, 3.083155799302562e-02, -7.098166043849112e-03, -2.007314747695749e-02, -2.315109042552116e-03, 4.918344170895484e-02, -2.838455942626181e-02, 3.606143365815468e-02}
			{2.782990698826144e-02, 1.684139023344810e-02, 3.736206894225805e-02, 2.466542526255382e-02, -2.166429853403906e-03, -8.921898896520009e-03, -4.620743075775226e-03, -1.492339115649195e-02}
			{3.583402538929736e-02, 8.345800953329204e-03, -8.037021187697706e-03, -7.401516243752200e-03, -5.983369585756268e-02, -2.557657863076605e-02, -1.309606064226351e-02, -1.927938340989456e-02}
		5-1
			{4.508557464145865e-02, 9.496632869046034e-03, 2.010837463243846e-03, -1.415843940920136e-02, -1.530015258107559e-02, -1.785053991689492e-03, -1.541398046970103e-03, 1.238577570401627e-03}
			{-8.320997884762912e-03, 3.545480021414962e-02, -9.645640299527544e-03, 8.155398366006187e-03, 2.119931390651838e-02, 1.596451551808077e-02, 1.093171886935645e-02, 1.032283836111276e-02}
			{6.596443234302839e-03, 1.456972783744598e-03, 1.758307761138790e-02, 3.338984816188642e-03, 5.627887093137111e-03, -3.354657851071935e-04, -4.791679864855651e-03, 1.097433253472893e-03}
			{2.010834738377051e-02, 3.909337595960668e-03, -1.536256094393064e-02, -4.576922877011658e-03, -1.182438807241403e-02, -1.138588767371147e-02, 1.135184926913389e-03, 2.352505052679671e-02}
		5-2
			{4.822914408809328e-02, 2.113734927670647e-02, 1.196537742928338e-02, -2.704830721517146e-02, -2.922615571804497e-02, 1.720998448296065e-03, -6.892439826591311e-03, 2.257572613793524e-03}
			{-2.397991307617311e-02, 3.660589179478255e-02, -5.101312644118854e-03, -2.105079429683419e-02, -1.064665756858436e-02, 8.493377447108458e-03, -1.942126566456102e-02, 8.622461949553696e-04}
			{2.912967299105910e-03, 1.292194516192182e-03, 1.907827383686858e-02, 3.188616429839168e-03, 1.236743383885095e-02, 9.090287115363756e-03, -8.704124647291875e-03, 2.584929433168356e-03}
			{9.353400225934541e-03, 1.512712104663731e-02, 2.651337765735419e-03, -2.484044832523870e-02, -2.979062427843229e-02, 7.211967011039584e-03, -1.095740051860963e-02, 4.980353226245067e-03}
		5-3
			{5.904314596845344e-02, 1.469324540473717e-02, -5.788348910293475e-03, -2.165119592445114e-02, -1.645377030286545e-02, -4.347788511957261e-03, 5.071401173482143e-04, 2.320219610733692e-02}
			{1.053470963216735e-02, 5.473815568901114e-02, 2.580351839361298e-03, 4.762451711176561e-03, 1.102543264534965e-02, 6.561123487519689e-03, -4.296810535240548e-03, 1.079982718391005e-02}
			{-2.006470045237068e-03, 1.058699164347065e-04, 2.405397351863700e-02, 4.743611909130530e-03, 1.910818140872058e-03, -5.998663038317615e-04, -8.662985797720789e-03, -1.482158239925403e-02}
			{1.787958504806175e-02, 9.548724071165837e-03, -7.700340219997984e-03, -1.064975321747729e-02, -1.622802870531837e-02, -4.099550374681247e-03, -5.419991975196016e-03, 1.556020525458098e-02}
		5-4
			{4.103654577891430e-02, 1.137926059502941e-02, 4.183160862629544e-03, -2.264485183460941e-02, -1.784945425863660e-02, 9.100701391946213e-03, 8.364205455347967e-04, 1.203061931084985e-02}
			{-8.856190396352150e-04, 4.347003805302239e-02, -4.473025066902271e-03, 7.636590774085452e-03, 1.989215924477223e-02, 1.243724240857566e-02, 1.303916480660383e-03, 1.461386126963035e-02}
			{1.618438744481207e-03, 8.367394539753017e-03, 2.676399260314468e-02, -9.232190461789106e-03, -4.513275625895759e-03, 4.230594200377448e-03, -2.483739112604126e-02, -2.816951025051294e-03}
			{-6.744793440035391e-03, 1.134362211530384e-02, 1.964125817052488e-02, -7.752201138665072e-03, -3.081713607715287e-02, 5.833947835489019e-03, -8.459611851246602e-04, -2.031205033235615e-02}
		5-5
			{3.804512819201287e-02, 5.276973167053840e-03, 9.075116841626565e-04, -1.425632215058817e-02, -1.026542916809005e-02, 6.684795946035753e-03, -9.865338060806035e-04, 3.982861668334151e-03}
			{-4.488651111047229e-03, 4.255955325473644e-02, -7.602724044959711e-03, -8.080548965740618e-03, 1.322297090445064e-03, 5.449679931191592e-03, -9.277602180361904e-03, 6.027330248084072e-03}
			{-7.059527535088847e-03, -1.488956523262720e-02, 6.857909089945360e-03, 1.194298275957822e-02, 2.304911660666828e-02, 1.163206424371229e-02, 9.082521823628540e-03, 9.013773425635516e-03}
			{-4.892712755468037e-03, 8.616413290719998e-03, 3.210989557936482e-03, -3.517523068246617e-02, -5.193692996098258e-02, -9.647062348706919e-03, -2.538495063209287e-02, -4.733547675135726e-03}
		5-6
			{5.104711413901228e-02, 7.568144690620655e-03, 1.442011566298733e-04, -2.965506425073526e-03, -1.380563113563680e-02, -1.090308124324759e-02, 1.214155272663343e-02, -4.557531779012626e-03}
			{-3.295971269811198e-02, -8.619463503875924e-03, -4.767793525651867e-02, 3.898685259350707e-02, 8.375457679052607e-02, 4.710451522980288e-02, 5.374249891977120e-02, 5.217733563700055e-02}
			{1.711295873628175e-02, 3.561075338190837e-03, 1.627152083125069e-02, 9.740884224785586e-03, 1.248915161873158e-03, -1.486740431211903e-02, -2.113708236618217e-03, -9.460497274843178e-03}
			{-9.753019241803038e-03, 1.836539409132049e-02, 1.177572109578756e-02, -5.431502709265586e-02, -5.600125226256857e-02, 8.097826900422012e-03, -4.989518034655464e-02, 4.445207796838112e-03}
		5-7
			{4.017604400679048e-02, -7.585683453508890e-04, -7.958822500727178e-03, -1.025356584675432e-02, -7.808496065449728e-03, -1.041564797549971e-03, 5.550718418635130e-03, 8.990470315535454e-03}
			{-3.715633238022062e-05, 5.679463818795184e-02, 6.944496138558070e-03, -1.568324678306248e-02, -8.851320316697197e-03, 6.697786954317174e-03, -2.313007045536705e-02, 3.571600567428846e-03}
			{2.121266498865715e-04, -7.749451278544502e-03, 9.677167715222298e-03, 3.477690175662751e-03, 6.172174524923245e-03, -1.405625571557976e-03, -3.782223925769252e-04, -3.961079682440790e-03}
			{3.027024352575852e-03, -3.435420724806675e-03, -1.125710114256887e-02, -5.600319131872405e-03, -1.639789365625394e-02, -3.790779170000017e-03, 4.624307850431884e-03, -1.133171845864850e-05}
		5-8
			{7.297664361345711e-02, 2.592179115009801e-02, 2.495744715042080e-02, 3.738993153474718e-02, 1.145022042241070e-02, -1.307973278834309e-02, 2.825849986625417e-02, -1.311677375358309e-02}
			{7.321206786346173e-03, 5.061834152633564e-02, 5.565453236805211e-03, 2.485359303672718e-02, 3.497656891725272e-02, 2.138302323238023e-02, 1.970008065997921e-02, 1.924227230313464e-02}
			{3.067175091645205e-02, 1.988014966928307e-02, 3.572471191187621e-02, 2.715010659610163e-02, 1.190813461307390e-02, -1.119249709332072e-02, 3.630672354143563e-03, -1.473201371424626e-02}
			{1.534957531346872e-03, 1.976785406271317e-02, 1.681299014980950e-02, -2.220272215837862e-02, -3.095302853437618e-02, 4.102240717622938e-03, -3.990786560991153e-02, -1.821925006509477e-02}
		5-9
			{5.997504747959419e-02, 2.452012718566573e-02, 2.173911497630476e-02, 1.359824022832210e-02, 7.811896929033911e-03, 5.405584700858337e-03, 7.717112037496305e-03, 6.287901912886092e-03}
			{-4.364449185396517e-03, 2.816034864699317e-02, -1.819480506878135e-02, 2.743466525387563e-02, 4.909937381493078e-02, 2.537963822109860e-02, 2.995673477289238e-02, 2.779668980685236e-02}
			{1.195712690630396e-02, 1.324105004770014e-02, 3.862202938161832e-02, 2.505281851991346e-02, 2.218205213081993e-02, 1.120430452300065e-02, 5.557205008646285e-03, -4.444298500348441e-03}
			{8.160446542091157e-03, 1.822361905289107e-02, 1.442543437013432e-02, -6.838194285787409e-03, -1.276947673205719e-02, 1.553717230065010e-02, -8.695238904029987e-03, 4.707013705654634e-03}
		5-10
			{1.239810698152812e-02, 4.606709628697526e-02, 2.598186898795019e-02, 5.319446004547756e-02, -2.844971051306904e-04, 1.724866671557982e-02, 6.785194062886301e-03, 7.255180301712760e-03}
			{-3.548271827517657e-02, 1.429904859381704e-02, -2.797009901632331e-02, 5.161703771338256e-03, -2.248592590302351e-03, -7.061572375501196e-03, 6.687073003104824e-03, -1.790739156882623e-04}
			{2.434595391397377e-02, -7.660022608120619e-02, 8.075932956287994e-03, -5.476767725679523e-02, 2.094219268886944e-02, -2.034106788799806e-02, -3.797385177794039e-03, -9.666047932914808e-03}
			{2.697525885463123e-02, -6.007881677196060e-02, 4.643153043411247e-04, 6.988996610370303e-03, 1.960970560404854e-02, 3.463067777643337e-02, 9.587990817531299e-03, 1.912948544703677e-02}
		6-0
			{6.835108659560350e-02, 2.503332031953574e-02, 2.531861748390974e-02, 2.433444568756703e-02, -1.214213189829189e-02, -3.056581978900567e-02, 6.979901141523086e-03, -1.987033452068852e-02}
			{-5.527712547159203e-02, 1.478727186256121e-02, -1.595698865000065e-02, -1.982566459943865e-02, 1.978191570585439e-02, 4.027544343191178e-02, -1.429116298152862e-02, 2.995312692984617e-02}
			{1.582345100437242e-03, -1.663374932226290e-02, 2.661367982309720e-03, 9.790613134332460e-03, 4.480908201666273e-03, 5.382671463582603e-03, 5.092054090350266e-03, -3.189564076756126e-03}
			{7.177159149599365e-03, -3.085253733100085e-03, -1.332205159939099e-02, -3.179705217459045e-03, -2.196486620057033e-03, 2.229832832863537e-02, -8.211932376441571e-05, 9.403740952546678e-03}
		6-1
			{5.852205165665692e-02, 1.907557678014242e-02, 9.272754261737055e-03, -2.694099042027568e-04, -7.882237613939743e-04, -2.290281267518043e-03, -7.701367349963920e-03, 1.155469191926525e-02}
			{-2.547359522678520e-02, 3.891362093357338e-02, 1.994739191567247e-02, 3.612474345647503e-02, 4.592395198873515e-02, 4.358012649775891e-02, 2.231528242841775e-02, 8.370304022982887e-03}
			{1.124823804983258e-02, -1.455412433289002e-02, -2.333379125217979e-03, 2.289081812429421e-02, 2.487669940325506e-02, -7.979811274562912e-03, 1.847279758894275e-02, -1.904332814354290e-03}
			{1.758196180264912e-02, -1.349529203934257e-02, -3.375895056750571e-02, 1.075242913147739e-02, 5.943844901417276e-03, -2.222881354612278e-02, 1.572058315169865e-04, 1.343343739057100e-02}
		6-2
			{7.780792157644680e-02, 5.094249342953260e-02, 3.068435307814855e-02, -2.037252594506022e-02, -1.743514027599295e-02, -2.423048588898106e-03, -3.412346748514732e-02, 1.430864919260901e-02}
			{-1.949107901750394e-02, 4.191771893661859e-02, 3.972883202124697e-03, 7.738640297858644e-03, 4.438774816524065e-02, 5.474469032848688e-02, 1.508965115473612e-02, 3.862780114014738e-02}
			{-3.559072249135866e-03, 4.925339149652349e-03, 3.628599993328995e-02, 2.936723284352032e-02, 4.616508998367435e-02, 3.048823817466516e-02, 4.682921595560210e-03, 9.270655429766968e-03}
			{-2.593792466253799e-02, 7.329190580047521e-03, 2.994748555470546e-02, -5.670006746062285e-03, -3.523090149263598e-02, -9.139738060733869e-03, -3.259311156214087e-02, -2.621826774558623e-02}
		6-3
			{5.486537395687924e-02, 5.960350997394282e-03, 2.418611525890910e-03, 2.065875280360854e-02, 9.271767753039974e-03, -1.338528127677800e-02, 1.388510026865266e-02, -9.629861740088388e-03}
			{-3.601042682891629e-02, 8.999516367313283e-03, -2.292021618972342e-02, 1.909525146606000e-02, 4.107298101480176e-02, 2.752169025966759e-02, 2.355258545524670e-02, 1.305325223984184e-02}
			{3.592116267731637e-02, 2.201105988433446e-02, 3.015377807650662e-02, 1.339765859140064e-02, -4.606403648236204e-03, -2.371338672294832e-02, -5.414162171987893e-03, -1.065114206208550e-02}
			{-6.744683598842217e-03, -5.353822140842322e-03, -4.034615445712320e-03, 1.523542026504369e-06, -8.505217362106398e-03, 1.246810200606208e-02, 1.299368938148158e-02, -4.010369499040881e-03}
		6-4
			{6.940997425145774e-02, 2.256255512411210e-02, 1.159153001655664e-02, 3.203533447646269e-03, -2.392748515388238e-02, -2.939457560348925e-02, 5.753979492721727e-03, -2.241684402748186e-02}
			{-7.614638900261012e-03, 1.403018051588953e-02, -3.077741482350084e-02, 4.363786678688900e-02, 6.818397115173776e-02, 2.417767794360553e-02, 4.106453094817684e-02, 2.921202076237072e-02}
			{1.561025323682755e-02, 7.367834043347342e-03, 2.823677452960787e-02, 2.008025791773007e-02, 2.238122246111573e-03, -1.519796940465702e-02, 2.600066854751114e-03, -2.784715975621855e-02}
			{3.898382338860300e-03, 5.826490432205354e-03, 5.472644456240342e-03, 1.219390912887222e-03, -2.523042968119246e-02, -2.454924338671636e-02, -1.217060921576313e-02, 2.037754221762511e-02}
		6-5
			{5.664638516097698e-02, -5.153602926239323e-03, -6.173090765993094e-03, 4.023355039532349e-02, 1.939267180287662e-02, -2.190823810245402e-02, 3.688764984344572e-02, -1.741914328985699e-02}
			{-2.062768080205258e-02, 2.703902379672011e-02, -1.425344438885934e-03, 3.362166854774696e-02, 3.768708528812547e-02, 1.821043905935693e-02, 2.538390616116740e-02, -1.259097321488607e-02}
			{1.477597325114152e-02, 4.429289167466600e-03, 1.328116494825962e-02, -3.063478344929950e-03, -1.427838370001283e-03, -5.920380423138933e-03, -7.830190000463059e-03, 4.603961366260259e-03}
			{-1.698407179294780e-02, 1.449902449461771e-02, 1.513191676739274e-02, -4.797393470483007e-02, -5.353388471117604e-02, 1.062514842227016e-02, -4.393731356503776e-02, -8.013345566108169e-03}
		6-6
			{6.014699150222388e-02, 1.390922266448070e-02, 1.177779304492883e-02, 2.496920088842109e-02, 1.099349293671794e-02, -8.442907182405692e-03, 1.652009232438745e-02, -7.623985013805052e-03}
			{-7.261494292628158e-03, 4.333840796004390e-02, 1.409967701762311e-02, 4.471073727174904e-02, 5.431093711501921e-02, 3.526958747191982e-02, 3.172792833179160e-02, 1.480624094966705e-02}
			{1.520475383383686e-02, -1.182996518311242e-02, -1.544553681154211e-03, 1.466454900610844e-02, 2.753800403675697e-03, -2.406195973866898e-02, 1.198461475823508e-02, -1.470491618553985e-02}
			{6.712519228587738e-04, -1.442003076080415e-02, -2.452976042147661e-02, -7.136901320271043e-03, -2.279608717119799e-02, -1.700072397546815e-02, 3.676800077929668e-03, -7.394634246168277e-03}
		6-7
			{6.430486455568270e-02, 1.909269662305321e-03, -6.569809102846119e-03, 2.470008226047458e-02, -1.790569619202077e-03, -3.559714933942954e-02, 2.032440828903251e-02, -1.425947905139432e-02}
			{2.710876935296994e-02, 5.286813442759330e-02, 1.111838601662822e-02, 5.437079020570409e-02, 1.970964551286208e-02, -2.484671541153045e-02, 3.904308444084785e-02, -2.972526045060601e-02}
			{2.705537353737079e-02, 1.309624292121276e-02, 1.960503552564309e-02, -4.490776218753069e-04, -1.790852425306077e-02, -3.013456179045493e-02, -8.831001936042315e-03, -2.094678864805843e-02}
			{-5.133440899462206e-03, -3.729731905604188e-04, -4.632590787637079e-03, -1.158564717081983e-02, -1.174038078846083e-02, 5.950059882403744e-03, -1.861508074764278e-02, 2.552086714064383e-03}
		6-8
			{2.679824111055272e-02, -1.976143117590326e-03, -3.219544576724980e-03, -1.998115075320728e-02, -1.794385167426489e-02, -1.012096470250006e-02, -1.981026212402224e-02, -3.580774931960920e-03}
			{-3.579049651904823e-02, 2.381099300422605e-02, -1.630293235484486e-02, -2.285020045490842e-02, -6.107902572960098e-03, 7.198784894794880e-03, -1.434964068827499e-02, 4.235088088898552e-03}
			{1.484812633154043e-02, 1.288875868116096e-02, 2.946581916500216e-02, 1.032297378900294e-02, 1.348839280823280e-02, 7.775510081539939e-03, -3.356880347195337e-03, 1.496424575508345e-03}
			{4.003674080251703e-02, 2.770702605203223e-02, 1.247348767173172e-03, -3.086025231311769e-03, 3.272785626976612e-03, 1.232456358986730e-02, -1.861770284957822e-02, 1.601929237634548e-02}
		6-9
			{2.128636021334842e-02, -1.867084192423890e-02, -1.134469717118563e-02, 8.523395226428589e-03, 7.489720002671298e-03, -3.062068553971956e-03, 8.559985034619636e-03, -1.500178977065063e-03}
			{-4.707246842236436e-02, 6.871779050377440e-03, -3.054314949575083e-02, -1.715883887504116e-02, 9.984679262427356e-03, 1.906232624752708e-02, -1.022232214851585e-02, 1.550457904203300e-02}
			{3.084488004212323e-02, 2.682322904993150e-02, 3.489444237179046e-02, 2.010393594308921e-03, -3.437815446106643e-03, -5.443827963636532e-03, -7.074917877372588e-03, -3.548492146671115e-03}
			{1.595029306777052e-02, 1.305381984247333e-02, 4.962084832465669e-03, 8.278126515204997e-03, 6.418780326370296e-03, 1.714703993877127e-02, 9.534087807636491e-03, 7.322920523406906e-04}
		6-10
			{-3.001273954460363e-03, -4.378259977668453e-02, -5.517604522664432e-02, -2.818995612760958e-02, -1.088143635172694e-02, -2.610403617786066e-02, -1.463710768006937e-02, -1.332402939539822e-02}
			{-1.050055750640547e-02, 2.745461926141125e-02, -2.148931860356775e-02, 1.396104711414540e-02, -4.877461530769750e-03, 8.575122894362181e-03, -9.683908718804852e-03, 1.870534650517068e-03}
			{-2.876770620973122e-02, -4.342864617774427e-04, -3.413798579973771e-02, 5.969350791408604e-03, -1.827356794430980e-02, 6.632122948510733e-03, -1.504714170882992e-03, 3.593864355354336e-03}
			{-6.929574005519546e-03, -2.937053213715001e-02, -7.145512962209304e-02, -1.966214138563120e-02, 4.475978639724211e-02, 2.311929571072468e-02, 2.800946054811508e-02, -8.490366889305094e-03}
		7-0
			{6.782081580298220e-02, 3.255501277463770e-02, 2.707522004361353e-02, 1.138578440255482e-02, -1.452605425222469e-02, -3.317495659970177e-02, 5.282516454249674e-03, -2.318992999695177e-02}
			{-3.816867607934944e-02, -1.082621864060671e-02, -4.809297467063454e-02, -1.306216094363154e-02, -2.191680033088906e-02, 1.161658503665906e-02, -1.166207047755201e-02, 9.032314019805898e-03}
			{1.268220963055501e-02, -9.633388678687231e-03, -4.979371641679751e-03, -8.077640057969519e-03, -3.980402997727053e-03, 1.234201813370020e-03, 4.271082819831608e-04, 8.766391886558069e-04}
			{6.999494681645503e-04, -4.134000068533749e-03, -3.403881952793751e-04, 1.220662006341608e-02, -1.060301836458545e-02, 9.769457737850012e-04, 1.670017932659438e-03, -7.816377382456802e-03}
		7-1
			{9.511302813109452e-03, -2.101175732359807e-02, -1.856192440148293e-02, -6.806359226156460e-03, 3.586188718306184e-02, 4.743949738580844e-02, 1.531523954144829e-02, 3.342576195429334e-02}
			{-4.471039732305553e-02, 3.986538935988027e-02, 1.655822322328500e-03, -4.245229207682527e-02, -6.154198882160848e-03, 2.677112101221151e-02, -3.794499437297059e-02, 1.924088392866763e-02}
			{4.440617607760812e-04, 2.009443743023531e-02, 3.856282812067925e-02, -2.460876730062914e-02, -1.819042821310185e-02, 1.233137928732443e-02, -2.706127592574536e-02, -1.303077141112744e-02}
			{-2.372927652358095e-03, -1.067212397128529e-04, 1.816180298946571e-02, 3.264440325180006e-02, -2.037864121163934e-02, -3.540437305708285e-02, 6.427651377518256e-03, -2.686240519393425e-02}
		7-2
			{4.417966637221299e-02, 1.880879368363678e-03, -7.150751786562849e-03, -9.996725718384806e-03, -3.937777979303499e-03, 9.424405285765552e-03, 9.219301669342619e-03, 7.393005392800323e-03}
			{5.302058133157898e-03, 3.812912573338983e-02, -8.519015527697760e-03, 1.153633539962631e-02, -8.740238102996501e-03, -2.090378303808025e-02, 2.503818840421120e-03, -1.365476034177341e-02}
			{3.432768284644726e-02, 2.376233897461899e-02, 1.796294781010324e-02, -2.332313829604243e-02, -2.144662216879948e-02, -8.674164949939573e-03, -1.258118629252808e-02, -5.549759500634357e-03}
			{-6.579106017509846e-02, -3.094188656916812e-02, 2.609086701102964e-02, 4.128883786347754e-02, 1.394003276230182e-03, 1.650280737579680e-03, 1.077112964209567e-02, -2.710441006749048e-02}
		7-3
			{3.414736132872184e-02, -1.964462678569228e-03, -5.287930689653018e-03, -1.348657531241059e-02, -1.348058529960522e-02, -5.881662198072552e-04, 3.488363987055271e-05, -8.452910931187241e-03}
			{-2.591470013682240e-02, 2.980709648871251e-02, -4.024576251874319e-03, 2.589102787007501e-03, 7.786898523395485e-03, 7.995178551795080e-03, -7.718306906319946e-03, 4.852064594683328e-03}
			{4.359874233145219e-02, 1.775765823324389e-02, 3.624576753975271e-03, -1.547038097862464e-02, -5.021963908891049e-03, 1.007780436799115e-03, 1.071896475456757e-02, -3.999367940012252e-03}
			{1.447760996435777e-02, 6.391159466907076e-03, -1.399814074129932e-02, -2.106623802872098e-02, -2.191752247262994e-02, -4.478792302136484e-03, -8.665348055337498e-03, 2.870659888569113e-02}
		7-4
			{3.140506153026411e-02, 8.837553629805163e-03, 5.440426452462056e-03, -2.162590388786746e-02, -1.407313494862028e-03, 2.578847802326149e-02, -6.640049716975769e-03, 1.458510719758111e-02}
			{-1.168379168403416e-03, 5.617854322691590e-02, 1.834929975499138e-02, 1.714739735463261e-02, 1.773518261913686e-02, 8.153545650951199e-03, -1.560391761660653e-03, 5.106257602340431e-03}
			{4.535805958388361e-02, 1.531544283106828e-02, 5.071041638588511e-03, 3.767868259693016e-03, 1.405747146566917e-02, 3.268259169523031e-03, 2.191974281364807e-02, -1.992094243108334e-03}
			{-2.249167813750324e-02, -4.186149168624940e-03, 1.510476537398900e-02, 5.744517276226184e-03, -2.439752945281367e-02, -1.299585155893637e-02, -1.295331736335535e-02, -7.649630934217578e-03}
		7-5
			{5.150171827584169e-02, 1.827376646179191e-02, 7.710566718536603e-03, -2.140283568579332e-02, -2.704117338654366e-02, -7.362846186491855e-03, -1.224073006607510e-02, -1.027030118030186e-02}
			{-5.557296760942554e-03, 2.884385687184123e-02, -2.039292366837188e-02, -4.704525856962184e-03, -2.222117951917944e-02, -3.423348088247859e-02, -6.869195949375760e-03, -1.496065726459300e-02}
			{3.427513964452693e-02, 8.197996125273624e-03, 3.037733472505538e-03, -1.448092522987570e-03, 5.090491053021578e-03, 7.088400028440714e-04, 1.804354335894053e-02, -9.680411381962897e-03}
			{-1.166466132949084e-02, -9.982199787886130e-03, -5.161014592904613e-03, 9.833667304272637e-04, -1.822991172096705e-02, -9.016916224619668e-03, 2.266677277229821e-03, 6.280975672118605e-04}
		7-6
			{6.095844076164685e-02, 1.854508765061134e-02, 2.290749054431824e-03, -1.858971863620528e-02, -2.992508726923206e-02, -1.941410771650636e-02, -5.568747328556212e-03, -5.121222833601374e-03}
			{-2.306608063128230e-03, 2.849367616206968e-02, -1.114073446175346e-02, 3.436745021028186e-02, 1.809115098882604e-02, -2.312586896539496e-02, 2.544858472643087e-02, -1.747895679473666e-02}
			{4.124855057256293e-02, 2.090124409781838e-02, 1.093221601327307e-02, -1.636920674251507e-02, -1.562022796899751e-02, -1.281285749239061e-02, -2.635003625430926e-03, -9.375631790086724e-03}
			{-2.894560062403954e-03, 7.124447985882310e-03, -4.256784263503380e-04, -2.736710166566478e-02, -3.182109854570033e-02, 2.326593645282556e-03, -1.532868758673143e-02, 1.830050721546382e-02}
		7-7
			{4.498120672947138e-02, 2.503956551591150e-02, 1.665810407941415e-02, -3.658040551402469e-02, -2.798301581800385e-02, 2.061483038928153e-02, -3.074408529407564e-02, 1.873172665872262e-02}
			{-7.516948140945908e-03, -8.814776587965903e-03, -1.747534706346663e-02, 4.571682108725160e-02, -3.674396514830092e-02, 4.211896350503119e-02, -1.924209881137210e-02, 7.952519033967277e-03}
			{9.024832089185225e-02, 8.596378768997692e-03, -1.202997949931257e-02, 4.698241917138820e-02, 5.752535707154408e-03, -4.048358914906913e-02, 5.743401320881794e-02, -2.031177453329014e-02}
			{-1.729006259600196e-03, 7.059702650114413e-03, 5.503286301152889e-03, -3.066340312444338e-02, -5.099781678994517e-02, 1.277189269691809e-02, -3.754746882120586e-02, 8.847577277979081e-03}
		7-8
			{6.380863769669098e-02, 2.212425325109584e-02, 6.487436371737570e-03, -1.792620397748601e-02, -3.591860713618120e-02, -2.464283903087229e-02, -5.416853655799976e-03, -1.772474952304007e-02}
			{-2.011173092585713e-02, 4.838377332405031e-02, 2.267235746816218e-02, 1.824719351137200e-02, 2.973601069797586e-02, 3.837119951349995e-02, -9.460549539766475e-03, 2.086140857885087e-02}
			{3.698595472350899e-02, 2.224125928922654e-02, 2.351473469654004e-02, 5.326716526236714e-03, 7.719962776336602e-03, 5.255541550131363e-04, 3.180132497986228e-04, 2.158093354242681e-04}
			{-1.587059289838117e-02, -1.313749281675707e-02, -2.139504393040973e-03, 1.697788804732736e-02, 1.190699573212557e-02, 1.917998776110998e-02, -3.257319645698361e-03, -1.211666356124790e-02}
		7-9
			{-2.490655322111809e-02, -1.363741021831020e-02, -2.469476122558850e-03, -6.159736209038691e-02, -3.178499985487295e-03, 6.481523228214714e-02, -3.445811968637600e-02, 4.168136297734341e-02}
			{-4.048810056979709e-02, 2.407943751483414e-02, -2.344406847667975e-02, -3.221356483732925e-02, 8.634747025112273e-03, 8.208953681314080e-03, -1.347299792605457e-02, 1.717908260142122e-02}
			{-1.051999840295226e-02, -3.342105153066974e-03, 2.502364964893063e-02, 7.563446973123594e-03, 1.263636675956967e-02, 1.034884953905521e-02, -1.882627582524399e-03, -1.507381301072439e-02}
			{1.767917260257037e-02, 1.596139277571969e-02, 1.226487299233682e-02, 1.066416283614088e-02, -1.951408463047082e-02, -2.683820038917905e-02, -5.464048850808789e-03, -1.004500299987840e-02}
		7-10
			{-7.080264462257935e-02, -3.950009352945963e-02, -1.620332968903028e-01, -6.079616792428148e-03, -6.111939929367805e-02, -7.834329037535729e-03, -2.916379247230287e-02, -6.520929911898919e-03}
			{-9.439140031318677e-03, -1.623354912987580e-02, -1.210609869759591e-02, -1.276957091190739e-02, -4.334410695704346e-03, -5.099594908672758e-03, -1.373274244004811e-03, -2.831369324801749e-04}
			{-7.277869383315426e-03, -8.641378406056992e-03, -1.059659301042701e-02, -4.143537248728451e-03, 1.565448990961313e-02, 1.104501773623866e-03, -1.727096371392933e-04, -3.007306835667857e-03}
			{-5.506205778788146e-03, -2.053255344295961e-02, -4.601423355815252e-02, 2.159620923097161e-02, -5.676025405370449e-03, 2.363317215910518e-02, 5.004120048899525e-03, 6.787426901444692e-03}
		8-0
			{4.798840236345465e-02, 8.057739575850978e-03, 1.087130852422456e-02, 2.585091461702798e-02, 1.493547197087106e-02, -1.278777595328091e-02, 2.283594381905489e-02, -1.167872389947308e-02}
			{-2.389010900637965e-02, 3.305493115999395e-02, -1.986414654197842e-02, -2.108058729372182e-02, 1.342482046895380e-03, -2.121228812846082e-02, -2.166320662550803e-03, -3.353313458941810e-03}
			{4.203379434187695e-03, -1.255489065126544e-02, -5.510894892435386e-03, -5.092468910098776e-03, 1.571746397219951e-02, 1.944712878626596e-02, 8.766375471761186e-03, 1.049937983772201e-02}
			{3.199925688475882e-02, 1.993722913091376e-02, -4.854298445154866e-04, -1.624309230560723e-02, -3.511600361548241e-02, -2.303284917686776e-03, -1.680292396225964e-02, 2.503101970882064e-03}
		8-1
			{3.935941829852354e-02, -1.430293414183069e-02, -1.691274883329337e-02, 1.965666858244553e-02, 2.481530930401070e-02, 1.784873850267151e-03, 2.216546326264643e-02, 5.487356519550031e-03}
			{-3.903584039377440e-02, 2.282638533166430e-02, -1.833997044922041e-02, -2.144971658410411e-02, 1.406739164103278e-02, 2.749015911761184e-02, -1.362940029894329e-02, 2.418352526878445e-02}
			{4.450261127183090e-02, 8.621145552314974e-02, 8.024305749523503e-02, -8.075332304693239e-02, -8.656381840938041e-02, -2.806217196571710e-03, -8.489460688771586e-02, -1.794955926697369e-02}
			{-7.797804430152335e-03, -6.818031047563776e-04, 1.374171967817775e-02, 2.481529026543482e-02, 1.574998547899449e-03, -8.308609019367573e-03, -1.985719273991625e-02, -1.422756997286953e-02}
		8-2
			{2.034381574964157e-02, -3.039849298209808e-02, -1.598114116533965e-02, 3.353208554856855e-02, 2.334942518462113e-02, -1.630275923483296e-03, 3.381876188663158e-02, -1.176423520132880e-02}
			{9.502581210787410e-03, 4.501266723170597e-02, -4.069208145821158e-03, 7.809351482723240e-03, -1.058837195424453e-02, -2.073756733896957e-02, -2.803257079297197e-03, -9.985627075702152e-03}
			{1.014709106919820e-01, 6.568973823656050e-02, 2.751946784100395e-02, -1.342770981777733e-02, -1.967943610778598e-02, -2.907376451500859e-02, -4.445878763607803e-03, -5.491503397525110e-03}
			{6.742539747389495e-03, 3.503176691982112e-02, 6.017621031505092e-02, 3.413143546015368e-02, -1.902708804057749e-02, -2.045729656793288e-02, -7.879748412317897e-03, -4.565227958881170e-02}
		8-3
			{2.457747221439934e-02, -9.672744638276476e-03, 2.157119111755951e-03, 1.653128268592740e-02, 1.207982409738188e-02, 1.059685265723055e-03, 6.335225100109236e-03, -1.313710316236911e-02}
			{-1.043261881477289e-02, 2.044347304729826e-02, -1.414108679781618e-02, 4.513730829998357e-02, 4.253527780380093e-02, 9.984550778450439e-04, 3.722307516571113e-02, 2.235361925580766e-05}
			{4.744250957420339e-02, 1.907904661771699e-02, 4.986945436159786e-03, -9.129104383400324e-03, -1.709394995965434e-03, -4.992525959810323e-03, 7.358517756441494e-03, 7.137285705445529e-03}
			{4.088204398118830e-02, 1.084511023815452e-02, -2.041343168533878e-02, 5.718794588167662e-04, -3.247794987483101e-03, -7.065430078465115e-03, 9.590011025030185e-03, 1.249643908298133e-02}
		8-4
			{7.398219249730727e-03, -1.631199289459858e-02, 4.282861176686193e-03, 1.257587610393876e-02, 1.198606080388761e-02, 8.187598760000133e-03, 4.090779951336650e-03, -9.876952458522473e-03}
			{-3.465563162384826e-02, 3.321234882365647e-02, -5.765827383958957e-03, -1.819871360916904e-02, 1.793165252791001e-02, 3.567919008572613e-02, -1.763483188224322e-02, 3.140283474995786e-02}
			{6.895193637743997e-02, 4.784620572112992e-02, 2.509612993136621e-02, -2.463347824155917e-02, -2.891387346412645e-02, -2.021477006276484e-02, -2.152428625971073e-02, -2.021581190257305e-02}
			{3.037955582011374e-02, 1.957732515963045e-02, 4.361921156816061e-03, 5.855081850775442e-04, -2.735239202655197e-02, -2.400153749249080e-02, -4.867569738413211e-06, 4.127514007741706e-03}
		8-5
			{1.394704273089347e-03, -3.793856103444067e-02, -1.866249422510156e-02, 2.528447596688795e-02, 3.587891006667922e-02, 2.152910303414972e-02, 3.367847502354935e-02, -9.185978850703617e-04}
			{3.014179481714498e-02, 5.495391274572170e-02, 1.308842809752147e-03, 2.814587675500822e-02, -3.358346775194280e-03, -4.182890434583555e-02, 1.387778528514473e-02, -2.125679643950902e-02}
			{4.617102433313648e-02, 3.992377446115686e-02, 2.030341277548358e-02, -4.792767912513220e-02, -3.125248924423370e-02, -5.874693230496552e-04, -3.783510685065090e-02, 1.512262620558829e-02}
			{2.395900570754054e-02, 2.234026233045128e-02, 5.070729236298381e-04, -2.431386937225344e-02, -2.653215293778547e-02, 4.125969393924141e-03, -7.195722071174969e-03, 2.518899721460622e-02}
		8-6
			{1.914443349027095e-02, -1.723964312786502e-02, -1.605693287477376e-02, -1.089179611387029e-02, -5.074950546498428e-03, -4.003338004194974e-03, 1.390952775601980e-03, -2.574993678501386e-03}
			{-2.498180936609199e-02, 1.761463267522786e-02, -2.412491553298382e-02, 2.207302616674738e-03, 1.215015373165402e-02, -1.964038204907571e-03, 7.578709043976309e-03, 1.284601079499475e-03}
			{4.833388015693822e-02, 2.992626240877391e-02, 1.845422776682579e-02, -7.755229060202633e-03, 8.773227941994052e-03, 1.115903177896258e-02, -2.356267121156074e-03, 2.230776833654209e-02}
			{1.124462123736453e-02, 2.737471601832130e-02, 3.056931252319632e-02, 1.916438989828835e-03, -1.684362792831149e-02, 1.292515338186733e-02, -6.965062891248020e-03, 8.904441543829910e-04}
		8-7
			{3.210703849715639e-02, -2.653544744728100e-02, -2.021298647746054e-02, 3.992807632314171e-02, 3.481178237256010e-02, -8.002294596309297e-03, 4.477164247558823e-02, 1.595640025418098e-03}
			{-4.684815300198580e-02, 1.894022432306809e-02, -1.578596837506298e-02, -1.052307548553996e-02, 3.044290741582985e-02, 3.395853534502309e-02, -2.843270932253150e-03, 2.792532506556681e-02}
			{1.323943959800748e-02, 9.366508768801669e-03, 2.048936758900783e-02, 1.168224887996947e-03, 1.904506975559656e-02, 2.586668669516696e-02, 3.201158508867954e-03, 2.002494039187470e-03}
			{2.118854555383739e-02, 6.931724835607316e-03, -1.426112638369034e-02, -1.043520884135048e-02, -8.790722521346739e-03, 1.287644701613819e-02, 1.803472049810085e-02, 4.266538261270773e-02}
		8-8
			{4.866383967662598e-02, -1.788253359724173e-02, -1.620845645362287e-02, 4.980716463700510e-02, 3.619046165980070e-02, -1.697375743688065e-02, 5.133656206215738e-02, -7.031880814644851e-03}
			{-2.990390468286194e-02, 1.346634892303690e-02, -2.882773809369535e-02, -2.335787411054060e-03, 8.838725584677794e-03, -1.096440955459541e-02, 6.270569525545178e-03, -1.868922332901221e-03}
			{1.510969790747236e-02, 3.962783729518252e-02, 2.907145802176579e-02, -8.151911384801508e-02, -4.276505970120890e-02, 2.594854794259566e-02, -7.141247959109831e-02, 2.747829820891608e-02}
			{1.678978815974690e-02, -1.991521408051528e-02, -3.672339203246897e-02, 1.155665527528955e-02, -5.417530375275441e-03, -1.279469128590695e-02, 1.554546967064056e-02, -6.958046857148054e-04}
		8-9
			{2.880571297396512e-02, -3.136994161627052e-02, -2.254864945599015e-02, 4.323408670856763e-02, 3.831900433037915e-02, -3.362221915534903e-03, 4.305852727711183e-02, -2.532387474533370e-03}
			{-3.710123770485792e-02, 2.865358841695969e-02, -1.240022768359062e-02, -2.811761490493766e-02, 9.258882135587688e-04, 2.208939272182732e-02, -2.425001089616740e-02, 2.461747980560413e-02}
			{-2.483234419741611e-03, 2.155298492493628e-02, 2.774467670084652e-02, -4.772376760973916e-02, -2.902401507869592e-03, 4.646114813397537e-02, -3.374012352162637e-02, 2.348967613539181e-02}
			{-9.118944488910917e-03, 5.637567862891559e-03, 1.078518429244695e-02, -1.058127532869676e-03, -3.129411111221280e-03, 1.284169845069572e-02, -1.942365340317427e-02, -9.643792608544302e-04}
		8-10
			{8.560656672113255e-02, 1.560099796314900e-01, 3.753486979722158e-02, 5.839138063485422e-02, 3.951545977023743e-02, 1.527227413976538e-02, -2.658446068357987e-04, -9.907351426558500e-03}
			{-1.340762059207509e-02, -6.753622180001642e-02, 2.853229446893234e-04, -4.356365883576180e-02, -1.087248385348993e-03, -1.743659006963333e-02, 1.911488129428010e-03, -2.555148672026962e-03}
			{-1.628869300895109e-01, 1.347822999729581e-01, -2.050582353158195e-01, 8.077901980581824e-02, -1.142672337765078e-01, 2.778595946800365e-02, -2.859508917273347e-02, 7.380623666881056e-03}
			{2.157105591980985e-02, -3.200351358327951e-02, -1.640768186877811e-02, -2.497140135318219e-02, 2.944250417818136e-02, 2.366034973602918e-03, 6.920417336088254e-03, -4.301421048051716e-03}
		9-0
			{2.591087330677862e-02, -6.035255057191256e-02, -3.201998708919596e-02, 3.167449230553157e-02, -9.336150159038543e-02, 5.085316234873381e-02, -3.909670259335903e-02, 1.267482237751048e-02}
			{-3.862717292378053e-02, 2.048516730568329e-02, -3.370542670718918e-02, 1.207181096754543e-02, 1.283853690026645e-02, -6.691456235446963e-03, 1.099906635841911e-02, -2.070581019331883e-03}
			{1.368864654099713e-01, 1.552321894823409e-01, 1.606502868479009e-01, 6.587451391949137e-02, 4.489840022431079e-02, 2.630282776678769e-02, -8.193932658150463e-04, 5.740908108112656e-03}
			{-3.404222205545737e-02, -6.541950528520130e-02, -2.664516816425900e-02, -1.105970519584288e-02, -5.160112187539093e-02, 3.477041778946573e-02, -4.326535091106506e-02, 1.202822215232614e-02}
		9-1
			{-9.636701218173466e-03, -2.994604416057583e-02, -1.091089079688698e-02, -1.656567583662094e-02, -1.335192460273187e-02, 6.804593452874539e-03, -1.412478313464255e-02, 8.351792146719955e-04}
			{-3.619694780435675e-02, 6.107083415243559e-02, 3.309593286463822e-02, -1.434470613071206e-02, 3.565530283488492e-02, 6.962273725945708e-02, -3.194484643862235e-02, 4.329590841547407e-02}
			{2.217593507984414e-02, 2.749450135559755e-02, 3.130252591788241e-02, -1.872120787461145e-02, -1.951414294475488e-03, 1.519181428357584e-02, -1.659070884952181e-02, 9.280639689808532e-03}
			{-4.556290366511467e-02, -7.114049315304479e-03, 4.510633896328043e-02, 4.947670477516039e-02, 1.081870762798891e-02, -4.243768411283650e-03, -1.803826006546879e-02, -2.812607315498308e-02}
		9-2
			{-2.321279746609303e-02, -4.271427309527565e-02, -1.478762104444648e-02, -3.526709440768865e-02, -4.457029261870205e-02, 2.614411627677483e-02, -4.072218425478898e-02, 2.747618314680033e-02}
			{5.615107199723424e-02, 1.363794582620328e-01, 7.969283934307712e-02, 4.055935115184023e-02, 6.056889167427726e-02, 4.079679737029080e-03, 1.423573540825777e-02, 5.814518533239486e-03}
			{-1.096045256342072e-02, -1.403554638379590e-02, 2.041897898288229e-02, 1.049667095344850e-02, 1.315764003633794e-03, 2.062111678877684e-02, -1.295557579258928e-02, -7.793699815827856e-03}
			{-8.621228383394030e-03, -2.242082854752998e-02, -6.440160114380989e-03, 3.554275783441622e-02, -1.588666349959504e-02, -5.046184775392350e-02, -1.490930119047780e-02, -4.317065880325271e-04}
		9-3
			{-5.890835816883534e-02, -6.336349473595651e-02, -3.826952359768988e-02, -5.911000043706671e-02, -3.426352255090089e-02, 1.748458634339164e-02, -4.625488427302180e-02, 1.775059608518328e-02}
			{4.966412537017295e-02, 1.083511134363653e-01, 5.268201016228925e-02, 3.412229659323786e-02, 3.093888948380678e-02, -1.719625215449727e-02, 8.167046618859074e-03, -9.260549794992853e-03}
			{7.340293658320549e-02, 2.491255471366751e-02, 2.656479252122838e-02, 3.734569955956944e-02, -1.968679326641292e-02, -3.947180491505389e-02, 8.800984270451938e-03, -2.905278197986744e-02}
			{-7.430160379698048e-02, -1.056539120108198e-03, 5.837845300417406e-02, 1.713432027979912e-03, -3.163767939037727e-03, 5.821103799774272e-02, -4.754504818203482e-02, 4.603335439949102e-03}
		9-4
			{1.299518526893180e-04, -4.200006569588963e-02, -2.654280745733307e-02, 1.301941130840894e-02, 1.263255581234234e-02, -8.613329933799322e-03, 1.658242141897999e-02, 9.124953320890684e-05}
			{1.067774454862509e-03, 4.238416564143406e-02, -8.896162284053925e-03, 1.461428165991076e-03, 8.297626720974961e-03, 2.150418152332816e-03, 4.097034914109081e-03, 7.508626732546300e-03}
			{-3.954623466269436e-03, -7.396811986940451e-03, 2.267205662114332e-02, 2.655100075707432e-02, 2.392878143009030e-02, 7.642184461210919e-03, 1.232286840770148e-02, -7.308202447522207e-03}
			{3.021041885940647e-02, 1.736428518855789e-02, 3.778920541820508e-03, 1.575964367945413e-02, -4.198952286352378e-03, -3.609371078775689e-02, -3.739596276180150e-02, 4.830398607673437e-02}
		9-5
			{-1.392467079209847e-02, -7.565187619737491e-02, -4.997368001849253e-02, 5.140680278716612e-02, 5.280702625416645e-02, -1.554717551378477e-03, 6.320281906897754e-02, -5.480311637800684e-04}
			{3.450512498926809e-02, 6.165215330340267e-02, 1.379394466296901e-02, 4.671590355365125e-02, 1.678460847666224e-02, -2.626180888859081e-02, 2.484566520733914e-02, -1.855695578484077e-02}
			{1.303175937675844e-02, 4.596313865431890e-03, 1.698205788771791e-02, 6.911104566514881e-03, 1.737235884799035e-02, 1.355969100118898e-02, 6.235070848374531e-03, 6.620622867414912e-03}
			{-1.347380702930387e-02, 8.649452600743453e-03, 2.681829750825651e-02, 1.164192435008667e-02, -8.906757935786675e-03, 6.945726296087288e-03, -1.245970031802265e-02, 3.749649380626762e-03}
		9-6
			{-6.255395968145313e-03, -3.067058200876027e-02, -1.811010600385896e-02, -2.547173862263664e-02, -2.508911762146831e-02, -9.148100477040582e-03, -1.875150941755310e-02, 2.303912912026837e-03}
			{-1.087230942490316e-02, 4.354716136818700e-02, -2.625083637204440e-03, -9.531417054650753e-03, 5.071874745551979e-03, 1.355599008924498e-02, -1.382853487578805e-02, 1.713334714184486e-02}
			{2.482674181631491e-02, 2.502228679125452e-02, 2.800472807263883e-02, -1.813114929642630e-02, -1.093933949732192e-02, 2.246756995131222e-03, -2.037807134758243e-02, 3.967397341117083e-03}
			{-1.148531079501608e-02, 5.266636027044974e-03, 2.758020066802222e-02, 3.132310190147777e-02, 4.444450139156358e-03, -3.269600404753568e-03, -7.250314707684970e-03, 4.326446841507739e-03}
		9-7
			{2.189515755460014e-02, 1.856064267451339e-02, 3.026940323741064e-02, -3.337652993936833e-02, -5.119472999358166e-02, -1.188298178911686e-02, -5.161321861205605e-02, -1.170734361402802e-02}
			{-3.696518784216263e-02, 2.785788618879457e-02, -9.465773694756265e-03, -1.433275559099366e-02, 1.725749674557604e-02, 3.053853417244337e-02, -1.270234921268542e-02, 2.045857677587783e-02}
			{2.836364256290693e-02, 3.516869968384464e-03, 1.491468276447232e-02, 2.827346024026265e-02, 1.111132640101887e-02, -2.229362241980051e-02, 2.056908640902134e-02, -2.264478252104098e-02}
			{2.103556772004376e-02, 2.179924776382440e-02, 1.454011019807737e-02, 3.262588096563711e-04, -2.898434708918874e-02, -2.220589567715407e-02, -4.095104121638602e-03, -1.454112588689654e-02}
		9-8
			{2.944853937530894e-02, 8.707272975769886e-04, 9.622926621576553e-03, -1.559245844154956e-03, -2.002371315435442e-02, -1.633191965949878e-02, -6.301317028261286e-03, -1.579343135571043e-02}
			{-5.728804184057464e-02, 1.740361948799656e-02, -1.111411264086292e-02, -1.219048649307234e-02, 4.033051548221582e-02, 5.965614972130456e-02, -8.015676546457309e-03, 4.305372069255850e-02}
			{9.012187476082397e-03, -4.037749254521046e-03, 1.359954544188953e-02, 2.414627600237470e-02, 3.295221524058096e-02, 1.006322546861834e-02, 1.596426250818555e-02, 6.703465184443569e-03}
			{1.073443880485908e-02, 1.311539299482066e-02, -8.481269939019560e-04, -1.576137899641794e-02, -1.018429119920278e-02, 1.362087209665894e-02, -6.615220527097395e-03, 2.149277699115202e-02}
		9-9
			{8.323437947537592e-02, 6.356055717602170e-02, 7.743839812211753e-02, 5.307161202223157e-02, -8.787308215130971e-03, 2.386352445097215e-04, -1.263868890823112e-02, -1.102874865544962e-02}
			{6.228738691757416e-03, 7.199118861172289e-02, 2.090158042405758e-02, 2.221006777548577e-02, 3.172707535774237e-02, -6.986043335466489e-03, 1.241089139708551e-02, -3.222493122731965e-03}
			{2.392797770762567e-02, 1.109741715988979e-01, 1.050407353441454e-01, 1.488195514162153e-02, 1.297487847214210e-01, -7.854478376936607e-03, 4.158776152202791e-02, 1.132455726278612e-02}
			{5.720939147550275e-03, 4.946282148076706e-02, 3.809499996924345e-02, -8.667566638329608e-03, 1.891793172921867e-02, -3.756141684872462e-02, 2.131390722034909e-03, -1.961417593726373e-02}
		9-10
			{4.240987780560307e-02, 6.318332869823058e-03, -1.205876332013902e-02, -1.198134230083652e-02, 5.120177466612971e-03, -1.881691856911352e-02, -2.989677090730376e-03, -8.068024225216300e-03}
			{-5.860491939560264e-03, 1.805789318226658e-03, 1.836415933456088e-03, 4.495144673657385e-03, 5.792674635884882e-03, 2.047446794051024e-03, 3.793867679751119e-03, 2.035687724132711e-03}
			{-1.340072119774777e-02, 1.421646700611691e-02, 9.558669374041415e-03, 8.390135881166735e-03, 1.289701886549969e-02, 9.019911380094800e-03, 1.052057027695098e-02, 3.257137247707488e-03}
			{7.794151177809082e-02, 1.504587715301235e-02, 6.660665492271035e-02, 1.359331133680702e-02, 5.638928311949167e-02, 4.153550112792863e-03, 1.533026267231882e-02, 3.925772673218220e-03}
		10-0
			{4.080998542059627e-02, 5.765930471614338e-02, 3.070847517735881e-02, 3.378473307177452e-02, 1.407078798252901e-02, 1.140488047300216e-02, 1.701524459436132e-03, 1.736731742799371e-03}
			{-4.142953461874307e-03, -1.153289645107615e-02, -1.048223426016792e-02, -5.409818352245957e-03, -1.891224652499283e-03, -2.307175086591016e-03, -2.426670244997379e-03, -1.553493702316751e-03}
			{-2.457303294241256e-03, -3.120617465741942e-02, -1.681287422441012e-02, -1.580730139952095e-02, -5.788060743570527e-03, -7.662925435084382e-03, -2.601667845728617e-03, -2.444666449448687e-03}
			{-5.024403256078039e-02, -1.137586529988189e-01, -6.050273867169403e-02, -4.874472913615234e-02, -3.664721734220974e-02, -2.081974475371407e-02, -5.680529465280713e-03, -1.741052500944522e-04}
		10-1
			{3.736759046616814e-02, 5.788607051826773e-02, 2.799455151589225e-03, 5.665292637544007e-02, -5.703513429087429e-03, 3.242171451588406e-02, -6.491989135046210e-03, 1.438911202688961e-02}
			{-7.467977722489759e-02, 1.648975568913403e-01, -1.152333305300804e-01, 1.049674976605201e-01, -5.766528509609199e-02, 4.596722902168539e-02, -1.669090389934536e-02, 1.083900435789032e-02}
			{3.944531888569471e-02, 1.396299253630537e-01, 3.361411131294014e-02, 9.071719172406784e-02, 1.748152746724783e-02, 3.112564069828599e-02, 5.344018241890350e-03, 3.125438517803849e-03}
			{-3.333223457789157e-02, -4.298269819950658e-02, -2.113488924258053e-02, 6.700784321120513e-02, -6.796228548710842e-02, 4.574680850385657e-02, -1.186358293105928e-02, 3.749117541612643e-02}
		10-2
			{1.011933505748919e-01, 5.998581655153701e-02, 6.781637099678324e-02, 4.314654313191647e-02, 4.175191505361064e-02, 1.698572361266682e-02, 4.386472681922856e-03, 3.891202315211850e-03}
			{-3.342281708655867e-03, 4.951706255262019e-02, 4.278756144095349e-03, 9.217094844059448e-03, 1.201360751735707e-02, 6.471046112048900e-03, 3.853763294167582e-03, -8.270880514196042e-04}
			{5.093443224297808e-02, 1.022201355943934e-01, 6.354130110006660e-02, 7.246756693604761e-02, 2.458353122429464e-02, 3.438298833381725e-02, 8.936614210058579e-03, 5.132160676369442e-03}
			{-1.368329021503084e-01, -5.113073623115474e-02, -1.504446612686116e-01, 7.629470631527202e-02, -7.784787875299962e-02, 4.762389608679437e-02, -1.913059496609673e-02, 2.964624267694787e-02}
		10-3
			{8.354067934989867e-02, 6.328292129885475e-02, 6.307337023509224e-02, 4.135827847761610e-02, 4.402479956868116e-02, 2.572490805869336e-02, 5.638797381801165e-03, 5.574381416536300e-03}
			{-7.373632045532074e-03, 8.984328307329038e-02, -1.710849998364867e-02, 4.647274964899122e-02, 3.827512778655550e-03, 2.466956032042466e-02, -2.144784845415863e-03, 3.909768249114671e-03}
			{3.174727071329599e-02, 6.122972230513100e-02, 3.384710176690334e-02, 4.949495293277877e-02, 1.441439154857752e-02, 1.496308173839543e-02, 9.622608685571091e-03, -9.663440002388548e-04}
			{-9.730148936863369e-03, 2.580929763879742e-01, 1.129014018289464e-02, 1.549433954758883e-01, -2.275172292580963e-02, 4.751602715096485e-02, -1.293553471059713e-02, 6.209747310151047e-03}
		10-4
			{5.810123735572038e-02, 3.555854401504918e-02, 2.771480793283838e-02, 2.993071255738197e-02, 2.220571432817586e-02, 7.774137420642336e-03, -1.553407350303492e-04, 1.281533576234445e-03}
			{3.273270066442472e-03, -6.461448296831494e-03, 2.030751784307071e-02, -2.227802063340664e-02, 2.283509248177591e-02, -1.011152494728844e-02, 7.898519315183190e-03, -3.311139606120739e-03}
			{3.838488630955227e-02, 2.869696499928818e-03, 2.411624122381914e-02, -5.914574667997661e-03, 5.274370273108965e-05, -6.585166149041297e-03, -1.467254139343629e-03, -7.016114331812505e-03}
			{-1.635385087992074e-02, -7.957291911465439e-02, 3.389629941685376e-02, -6.090410203581097e-02, -4.381773369862094e-02, -7.226809546701105e-02, -8.988634796547199e-03, -1.137518790206900e-02}
		10-5
			{4.406429948352317e-02, -1.959750677150516e-02, 1.139511358856386e-02, -1.452100232943168e-02, 1.828551520043867e-02, -9.732107278309098e-03, 2.962106732544366e-04, -5.314931004476796e-03}
			{3.355824852502682e-03, -2.820265598436113e-02, 2.099376901938454e-03, -3.685337471539976e-02, 1.267586361919064e-02, -1.446682682469247e-02, -4.873636746603392e-05, -7.691046971007570e-03}
			{3.840910962709575e-02, -1.777578300366656e-02, 3.579856307488662e-02, -7.809877985341556e-03, 5.589575274324538e-03, -8.445641019026975e-03, 7.262803083487477e-05, -2.702769453943257e-03}
			{4.925802905048214e-03, 3.321900782621741e-03, 2.857215320419440e-02, -6.239732660667388e-03, -2.158790572239580e-02, -2.770463802760418e-02, -5.969165042451409e-03, -1.085254181968709e-02}
		10-6
			{4.362367374784987e-02, 3.889771026955544e-02, 1.131607659343581e-02, 2.601346532691993e-02, 1.620330108892650e-02, 1.135280080104420e-02, 1.515462245470116e-03, 4.566839026413838e-04}
			{-4.776224540041298e-02, 1.121809595101399e-01, -7.177875645069909e-02, 7.024022551922142e-02, -3.137041645596016e-02, 3.570274259795976e-02, -8.316326950964766e-03, 9.961391089054319e-03}
			{5.312739273984053e-02, -6.661674795108612e-02, 6.018137992996293e-02, -4.100980339028536e-02, 1.890506882984530e-02, -2.654673735163220e-02, 7.213630145721367e-04, -8.025955713697379e-03}
			{-3.271882448642062e-03, 2.443843692755198e-02, 2.812061155078935e-02, 3.959054129086537e-02, -7.131800850111950e-02, -2.814447942342557e-02, -3.721759194226163e-02, 7.762121152257568e-03}
		10-7
			{2.836283542984772e-02, -4.450437964012635e-02, 4.708391070131792e-03, -3.279097138164801e-02, 1.050400209408409e-02, -1.847814631523517e-02, 8.602297289261498e-04, -6.648573995910083e-03}
			{-1.548658754527597e-02, 2.334911073913324e-02, -1.940194174079696e-02, 7.324607335093071e-03, -2.480805664925274e-03, 3.119791239078277e-03, -2.725897486756322e-03, 2.864183287999944e-04}
			{3.008065838453700e-02, -4.618706001914473e-02, 2.154207717449756e-02, -2.783459126878779e-02, 4.380062288166313e-03, -1.656099593835595e-02, -1.561737938846556e-03, -7.460012985977491e-03}
			{2.612228607053085e-02, 9.526241133246792e-02, 6.604603060588485e-02, 4.267856694612415e-02, -5.659997909776608e-03, -7.909277566372615e-03, 2.031412033263598e-03, -1.091300430100255e-03}
		10-8
			{1.868288431284424e-02, 2.057147305894414e-02, -7.441542894625310e-03, 1.586951169504336e-02, 2.122340370602235e-03, 8.937594924281785e-03, -3.294241862292325e-03, 1.840480961265770e-03}
			{-5.432919125607499e-02, 1.318759713520654e-01, -8.565510663744882e-02, 8.361503026220163e-02, -3.982737682949639e-02, 3.878809840268773e-02, -1.416800655285745e-02, 1.024724435081143e-02}
			{1.833725472467659e-02, -2.229460519384570e-02, 7.263481250468476e-03, -1.806171168867212e-02, -1.157961201561170e-03, -1.898220432995679e-02, 6.023125403414148e-04, -8.768297742190618e-03}
			{-2.293363692472931e-02, 6.660546877821424e-02, -8.833374478387809e-04, 3.446722903476824e-02, -2.974833424927638e-02, -8.579214274764467e-04, -8.227880313097773e-03, 3.532567506043855e-03}
		10-9
			{2.673618963407203e-02, 1.624967627170846e-02, 1.634024106872483e-02, 1.840164565517639e-02, 7.775300795290403e-03, 1.458365931787944e-02, 2.198504063078376e-03, 1.044920170293044e-02}
			{-2.037330552261831e-02, 2.473958357445925e-02, -2.839363804844675e-02, 1.068589531692551e-02, -1.156620712628537e-02, 4.368897529318190e-03, -3.116263669005978e-03, 2.891174411803596e-03}
			{-2.086590375149521e-02, -4.043809276264360e-02, -5.912039700697751e-02, -2.187815733179528e-02, -3.140591254100353e-02, -2.019644695938582e-02, -1.230082551141204e-02, -1.141350787940423e-02}
			{-1.024175523199360e-02, 9.819709394088735e-02, -1.845575876167702e-02, 5.075642046191298e-02, -3.795870088701119e-02, 1.604031721730595e-02, -5.019159267816550e-03, 6.350671290594002e-03}
		10-10
			{-3.167903679625672e-02, 4.400671913106802e-02, -7.437263983169444e-02, 3.119150023325830e-02, -4.314603442692427e-02, 1.805188410104489e-02, -8.875056247699294e-03, 4.456044928970629e-03}
			{-5.084690279455306e-03, 3.907095514755275e-02, -4.125008526500652e-02, 5.801928909638075e-02, -4.718189563577434e-02, 4.246515402872975e-02, -1.502943143419869e-02, 1.028211409589733e-02}
			{3.566846429848687e-02, -7.502866867116147e-02, 6.809475512164695e-02, -4.792848737466898e-02, 2.058243225812526e-02, -1.858287287061006e-02, 2.434365966522412e-03, -4.343830976518216e-03}
			{-2.680540499949530e-03, -3.029688791436254e-03, 2.211301477277738e-02, -2.353791172406953e-02, 3.191655713934503e-02, -5.723496505164219e-03, 7.726008481189817e-03, 2.601320714721584e-03}
alpha_moments_count = 350
alpha_index_basic_count = 130
alpha_index_basic = {{0, 0, 0, 0}, {0, 1, 0, 0}, {0, 0, 1, 0}, {0, 0, 0, 1}, {0, 2, 0, 0}, {0, 1, 1, 0}, {0, 1, 0, 1}, {0, 0, 2, 0}, {0, 0, 1, 1}, {0, 0, 0, 2}, {0, 3, 0, 0}, {0, 2, 1, 0}, {0, 2, 0, 1}, {0, 1, 2, 0}, {0, 1, 1, 1}, {0, 1, 0, 2}, {0, 0, 3, 0}, {0, 0, 2, 1}, {0, 0, 1, 2}, {0, 0, 0, 3}, {0, 4, 0, 0}, {0, 3, 1, 0}, {0, 3, 0, 1}, {0, 2, 2, 0}, {0, 2, 1, 1}, {0, 2, 0, 2}, {0, 1, 3, 0}, {0, 1, 2, 1}, {0, 1, 1, 2}, {0, 1, 0, 3}, {0, 0, 4, 0}, {0, 0, 3, 1}, {0, 0, 2, 2}, {0, 0, 1, 3}, {0, 0, 0, 4}, {0, 5, 0, 0}, {0, 4, 1, 0}, {0, 4, 0, 1}, {0, 3, 2, 0}, {0, 3, 1, 1}, {0, 3, 0, 2}, {0, 2, 3, 0}, {0, 2, 2, 1}, {0, 2, 1, 2}, {0, 2, 0, 3}, {0, 1, 4, 0}, {0, 1, 3, 1}, {0, 1, 2, 2}, {0, 1, 1, 3}, {0, 1, 0, 4}, {0, 0, 5, 0}, {0, 0, 4, 1}, {0, 0, 3, 2}, {0, 0, 2, 3}, {0, 0, 1, 4}, {0, 0, 0, 5}, {0, 6, 0, 0}, {0, 5, 1, 0}, {0, 5, 0, 1}, {0, 4, 2, 0}, {0, 4, 1, 1}, {0, 4, 0, 2}, {0, 3, 3, 0}, {0, 3, 2, 1}, {0, 3, 1, 2}, {0, 3, 0, 3}, {0, 2, 4, 0}, {0, 2, 3, 1}, {0, 2, 2, 2}, {0, 2, 1, 3}, {0, 2, 0, 4}, {0, 1, 5, 0}, {0, 1, 4, 1}, {0, 1, 3, 2}, {0, 1, 2, 3}, {0, 1, 1, 4}, {0, 1, 0, 5}, {0, 0, 6, 0}, {0, 0, 5, 1}, {0, 0, 4, 2}, {0, 0, 3, 3}, {0, 0, 2, 4}, {0, 0, 1, 5}, {0, 0, 0, 6}, {1, 0, 0, 0}, {1, 1, 0, 0}, {1, 0, 1, 0}, {1, 0, 0, 1}, {1, 2, 0, 0}, {1, 1, 1, 0}, {1, 1, 0, 1}, {1, 0, 2, 0}, {1, 0, 1, 1}, {1, 0, 0, 2}, {1, 3, 0, 0}, {1, 2, 1, 0}, {1, 2, 0, 1}, {1, 1, 2, 0}, {1, 1, 1, 1}, {1, 1, 0, 2}, {1, 0, 3, 0}, {1, 0, 2, 1}, {1, 0, 1, 2}, {1, 0, 0, 3}, {1, 4, 0, 0}, {1, 3, 1, 0}, {1, 3, 0, 1}, {1, 2, 2, 0}, {1, 2, 1, 1}, {1, 2, 0, 2}, {1, 1, 3, 0}, {1, 1, 2, 1}, {1, 1, 1, 2}, {1, 1, 0, 3}, {1, 0, 4, 0}, {1, 0, 3, 1}, {1, 0, 2, 2}, {1, 0, 1, 3}, {1, 0, 0, 4}, {2, 0, 0, 0}, {2, 1, 0, 0}, {2, 0, 1, 0}, {2, 0, 0, 1}, {2, 2, 0, 0}, {2, 1, 1, 0}, {2, 1, 0, 1}, {2, 0, 2, 0}, {2, 0, 1, 1}, {2, 0, 0, 2}, {3, 0, 0, 0}}
alpha_index_times_count = 969
